tree
version=v3
num_class=1
num_tree_per_iteration=1
label_index=0
max_feature_idx=30
objective=mape
feature_names=host_response_rate latitude longitude accommodates bathrooms bedrooms beds square_feet security_deposit cleaning_fee guests_included extra_people minimum_nights frac_av available comments_count delta_time amenities_count experiences_offered_labeled host_response_time_labeled host_is_superhost_labeled host_has_profile_pic_labeled host_identity_verified_labeled neighbourhood_cleansed_labeled is_location_exact_labeled property_type_labeled room_type_labeled bed_type_labeled cancellation_policy_labeled require_guest_profile_picture_labeled require_guest_phone_verification_labeled
feature_infos=[0:100] [51.294793698394031:51.679198512990943] [-0.49695830894418352:0.28428792217112514] [1:16] [0:14] [0:10] [0:16] none [0:4098] [0:500] [1:16] [0:235] [1:900] [0:1] [0:365] [0:290] [778:4401] [1:90] none 4:0:3:2:1 1:2:0 2:1:0 1:2:0 29:32:5:11:19:27:18:21:12:31:3:22:24:13:10:8:1:23:30:7:26:17:25:16:4:9:6:20:14:0:28:15:2 1:0 1:21:38:33:12:3:27:17:18:29:19:20:6:5:13:4:0:10:8:36:9:40:22:11:15 1:0:2 4:3:2:1:0 3:0:1:4:5 1:0 1:0
tree_sizes=3255 3576 3661 3648 3621 3614 3659 3657 3703 3698 3733 3715 3712 3600 3624 3713 3708 3636 3686 3696 3692 3658 3689 3682 3721 3674 3671 3725 3638 3658 3683 3656 3703 3672 3653 3718 3663 3668 3741 3696 3652 3716 3672 3678 3706 3730 3708 3746 3711 3665 3739 3670 3670 3697 3662 3716 3704 3686 3635 3704 3721 3733 3740 3699 3726 3670 3692 3691 3707 3658 3716 3686 3726 3691 3725 3705 3691 3673 3707 3720 3715 3722 3782 3712 3722 3671 3731 3757 3711 3681 3716 3751 3702 3726 3686 3687 3715 3689 3726 3714 3678 3735 3734 3752 3720 3718 3648 3738 3689 3727 3738 3732 3724 3681 3755 3702 3662 3741 3725 3687 3713 3696 3664 3763 3771 3738 3666 3693 3686 3739 3710 3725 3682 3705 3786 3739 3717 3700 3701 3727 3691 3758 3716 3714 3730 3751 3705 3722 3633 3734 3717 3702 3723 3742 3743 3767 3677 3732 3717 3762 3716 3753 3728 3724 3718 3670 3684 3699 3717 3679 3685 3676 3692 3721 3752 3673 3749 3747 3774 3721 3721 3725 3679 3676 3657 3693 3715 3694 3727 3705 3734 3657 3701 3719 3678 3720 3707 3656 3672 3639 3689 3700 3701 3710 3670 3662 3734 3737 3712 3687 3697 3634 3727 3728 3633 3724 3731 3681 3659 3707 3732 3635 3764 3728 3693 3708 3705 3679 3742 3690 3743 3726 3695 3664 3708 3705 3711 3663 3688 3702 3769 3719 3733 3716 3701 3666 3727 3744 3698 3686 3709 3677 3729 3668 3731 3714 3699 3685 3664 3735 3723 3784 3704 3699 3723 3734 3734 3669 3704 3711 3720 3701 3711 3668 3715 3686 3722 3709 3682 3684 3738 3700 3690 3705 3666 3737 3663 3737 3752 3707 3704 3645 3759 3736 3671 3698 3751 3681 3644

Tree=0
num_leaves=40
num_cat=6
split_feature=26 26 25 9 10 25 13 9 9 0 16 9 16 13 0 0 10 16 16 11 6 13 16 6 11 16 22 11 11 24 16 13 9 6 9 13 9 9 9
split_gain=2.26158 0.252975 0.237144 0.101981 0.0863858 0.0840878 0.0827232 0.0547299 0.0530221 0.0409077 0.235609 0.0444294 0.0566595 0.039501 0.0359968 0.0771741 0.0329236 0.0316495 0.0314958 0.0269365 0.0226092 0.0215503 0.0202848 0.0192257 0.0190927 0.0179919 0.0187727 0.0592122 0.0647153 0.107166 0.0177207 0.017416 0.0278861 0.015028 0.0144043 0.0205619 0.0204077 0.0358671 0.0139076
threshold=0 1 2 18.500000000000004 1.5000000000000002 3 0.76849315068493163 5.5000000000000009 14.500000000000002 77.500000000000014 2418.5000000000005 14.500000000000002 1287.5000000000002 0.031506849315068496 42.500000000000007 41.500000000000007 1.5000000000000002 2793.5000000000005 1273.5000000000002 19.500000000000004 1.0000000180025095e-35 0.14383561643835618 2418.5000000000005 2.5000000000000004 17.500000000000004 2016.5000000000002 4 5.5000000000000009 10.500000000000002 5 2351.5000000000005 0.97397260273972608 24.500000000000004 1.5000000000000002 64.500000000000014 0.13835616438356166 38.500000000000007 35.500000000000007 9.5000000000000018
decision_type=1 1 9 10 2 9 2 8 8 8 10 10 10 2 8 10 2 10 10 2 10 2 10 10 2 10 1 2 2 1 10 2 10 10 10 2 10 10 8
left_child=14 2 4 5 8 6 16 -3 25 10 -8 -11 18 22 15 17 21 -1 -13 20 -5 -4 -10 -16 31 26 -2 -28 29 -29 -9 34 -33 -15 36 -36 37 -22 -23
right_child=1 7 3 19 -6 -7 9 30 13 11 -12 12 -14 33 23 -17 -18 -19 -20 -21 24 38 -24 -25 -26 -27 27 28 -30 -31 -32 32 -34 -35 35 -37 -38 -39 -40
leaf_value=45.200000000000003 38.899999999999999 37.700000000000003 39.5 36 40 40.5 39.5 38 39 39.5 36 39.899999999999999 39.799999999999997 39.200000000000003 44.5 36 40.299999999999997 36.100000000000001 38 41 40 39.399999999999999 39.399999999999999 48 36 39.399999999999999 39.200000000000003 39.100000000000001 38.899999999999999 36 40.5 36 40 39.899999999999999 36 43 42 39.200000000000003 39.899999999999999
leaf_weight=208 875 119 3067 29 449 855 74 213 944 797 20 27 84 1958 13656 32 338 20 139 552 1311 394 199 5086 23 482 136 23 49 20 20 29 78 303 20 28 277 76 1407
leaf_count=208 875 119 3067 29 449 855 74 213 944 797 20 27 84 1958 13656 32 338 20 139 552 1311 394 199 5086 23 482 136 23 49 20 20 29 78 303 20 28 277 76 1407
internal_value=0 -0.00817728 -0.00754376 -0.00453724 -0.0128152 -0.0064278 -0.00767361 -0.0343299 -0.0140321 -0.0153741 -0.0346999 -0.0133272 -0.0247937 -0.0117395 0.00811917 -0.0034538 -0.00597436 0.00364892 -0.0350014 0.00106683 -0.00075295 -0.00663695 -0.0165542 0.00828148 -0.000247131 -0.0188515 -0.0211688 -0.0297476 -0.048316 -0.0732346 -0.0236876 0.000184328 -0.0116229 -0.00924329 0.000985492 -0.0145184 0.00151678 -7.09734e-05 -0.00385866
internal_weight=0 15415 15063 9625 5438 7202 6347 352 4989 1141 94 1047 250 3404 19002 260 5206 228 166 2423 1871 4868 1143 18742 1842 1585 1103 228 92 43 233 1819 107 2261 1712 48 1664 1387 1801
internal_count=34417 15415 15063 9625 5438 7202 6347 352 4989 1141 94 1047 250 3404 19002 260 5206 228 166 2423 1871 4868 1143 18742 1842 1585 1103 228 92 43 233 1819 107 2261 1712 48 1664 1387 1801
cat_boundaries=0 1 2 4 5 6 7
cat_threshold=1 2 136314880 64 537403458 2 2
shrinkage=1


Tree=1
num_leaves=40
num_cat=8
split_feature=26 23 23 26 26 23 13 16 15 9 2 1 9 2 13 13 1 0 0 2 13 15 13 16 16 13 1 2 1 0 23 9 13 9 4 23 1 2 1
split_gain=1.83297 0.629194 0.147356 0.144289 0.126591 0.122167 0.0904862 0.170775 0.0685893 0.0656 0.0562428 0.0458413 0.0452168 0.0411727 0.0620455 0.0479171 0.040772 0.0394634 0.074314 0.0382318 0.036695 0.029995 0.0289446 0.0283565 0.0262506 0.0261925 0.0249112 0.0230302 0.0223718 0.0446491 0.0221368 0.0200986 0.0197413 0.019665 0.0180344 0.0179734 0.0176567 0.0249081 0.0267013
threshold=0 1 2 3 4 5 0.99863013698630143 2041.5000000000002 1.5000000000000002 25.500000000000004 -0.064710139904486305 51.434272743254105 14.500000000000002 -0.024063781866173622 0.88082191780821939 0.98493150684931507 51.529077330376836 42.500000000000007 41.500000000000007 -0.096290203357285428 0.058904109589041104 1.5000000000000002 0.11095890410958904 2793.5000000000005 2827.5000000000005 0.072602739726027418 51.549997897270593 -0.33144068710790697 51.47173454113458 90.500000000000014 6 64.500000000000014 0.34931506849315075 5.5000000000000009 1.2500000000000002 7 51.491726530790281 -0.11002432815849399 51.490324530455943
decision_type=1 1 1 1 1 1 2 10 10 10 2 2 10 2 2 2 2 8 10 2 2 10 2 10 10 2 2 2 2 8 1 10 2 8 8 1 2 2 2
left_child=17 3 4 5 9 6 11 -8 22 10 19 -2 -10 14 24 16 -16 18 23 21 28 -3 -4 -1 25 -12 -21 -23 29 -13 -19 -7 -5 -6 -32 -11 37 -22 -39
right_child=1 2 8 32 33 31 7 -9 12 35 13 20 -14 -15 15 -17 -18 30 -20 26 36 27 -24 -25 -26 -27 -28 -29 -30 -31 34 -33 -34 -35 -36 -37 -38 38 -40
leaf_value=4.6799999999999997 -0.93999999999999995 -0.42000000000000032 -1.1399999999999999 -1.0700000000000003 -2.5700000000000003 0.90000000000000002 0.050000000000000003 -4.0780956881353632 -1.3 -0.52000000000000035 -0.92999999999999972 -3.6000000000000001 -0.90000000000000002 -0.43999999999999989 -1.8 0.11000000000000015 -3.6000000000000001 5.2000000000000002 -3.6000000000000001 0.050000000000000003 0.079999999999999724 -1.29 -0.72000000000000031 -3.5100000000000002 0 -0.45000000000000001 -0.5 -0.60000000000000009 -0.089999999999999858 -0.45000000000000001 3.5500000000000003 -3.6000000000000001 -1.7700000000000005 -1.9000000000000001 7.2000000000000002 0.90000000000000002 0.5 -0.3899999999999999 -3.6000000000000001
leaf_weight=208 209 881 615 62 21 2421 49 20 1526 114 494 27 474 343 151 35 21 9770 32 790 948 149 1039 20 126 357 235 991 1073 460 6268 38 103 74 2704 351 893 301 24
leaf_count=208 209 881 615 62 21 2421 49 20 1526 114 494 27 474 343 151 35 21 9770 32 790 948 149 1039 20 126 357 235 991 1073 460 6268 38 103 74 2704 351 893 301 24
internal_value=0 -0.00677385 -0.0123103 0.000591203 -0.00877968 0.00135723 -0.00205176 -0.0355694 -0.0171952 -0.00806267 -0.00921185 -0.00138056 -0.0212106 -0.0141631 -0.0169437 -0.0324601 -0.0389777 0.00789735 -0.00420483 -0.00669151 -0.000552623 -0.00920517 -0.0123449 0.00279691 -0.0133606 -0.0153335 -0.00169425 -0.0125815 -0.00423597 -0.00978592 0.00806739 0.0068744 -0.0277429 -0.0432509 0.00923612 0.00319486 0.00210748 -0.000289438 -0.00770951
internal_weight=0 15415 8787 6628 5133 6463 4004 69 3654 5038 4573 3935 2000 1527 1184 207 172 19002 260 3046 3726 2021 1654 228 977 851 1025 1140 1560 487 18742 2459 165 95 8972 465 2166 1273 325
internal_count=34417 15415 8787 6628 5133 6463 4004 69 3654 5038 4573 3935 2000 1527 1184 207 172 19002 260 3046 3726 2021 1654 228 977 851 1025 1140 1560 487 18742 2459 165 95 8972 465 2166 1273 325
cat_boundaries=0 1 3 4 5 6 7 9 10
cat_threshold=1 2351698016 1 546457866 2 2 2284064768 1644695924 1 266
shrinkage=0.1


Tree=2
num_leaves=40
num_cat=4
split_feature=26 2 26 1 1 2 26 17 2 6 1 13 1 13 17 13 1 19 17 6 2 17 2 1 17 1 2 5 5 1 13 11 13 1 2 11 17 2 13
split_gain=1.71698 0.390615 0.144293 0.135968 0.192199 0.128184 0.0996992 0.06098 0.0759027 0.0842757 0.053685 0.06311 0.0518743 0.0373292 0.048909 0.0910822 0.0408382 0.0343091 0.112267 0.0333731 0.029576 0.0288612 0.0273707 0.034451 0.0328793 0.0254148 0.0241032 0.0281776 0.0238512 0.0233276 0.0224882 0.0216844 0.020355 0.0194799 0.0188027 0.0184998 0.0179701 0.017133 0.0186297
threshold=0 -0.066266779411335366 1 51.547672901772096 51.47173454113458 -0.22319108522515044 2 5.5000000000000009 -0.13504210208518036 1.5000000000000002 51.414612092481768 0.99863013698630143 51.516816094328227 0.84246575342465768 16.500000000000004 0.98493150684931507 51.551808449667639 3 34.500000000000007 1.5000000000000002 -0.16769838679652119 9.5000000000000018 0.037720115169424161 51.47173454113458 16.500000000000004 51.549997897270593 -0.14072212933402747 1.0000000180025095e-35 1.5000000000000002 51.563350774550933 0.90000000000000002 29.500000000000004 0.075342465753424667 51.502618992933371 -0.039358176830704396 19.500000000000004 17.500000000000004 -0.054643467283060292 0.20410958904109591
decision_type=1 2 1 2 2 2 1 2 2 10 2 2 2 2 2 2 2 1 2 10 2 2 2 2 2 2 2 8 10 2 2 2 2 2 2 2 2 2 2
left_child=7 2 3 4 10 33 12 8 -1 -10 20 26 22 25 15 16 30 18 21 28 -2 -9 23 -3 34 37 -12 -28 29 -5 -15 -27 -31 -6 -25 -7 -8 -14 -39
right_child=1 6 -4 19 5 35 36 17 9 -11 11 -13 13 14 -16 -17 -18 -19 -20 -21 -22 -23 -24 24 -26 31 27 -29 -30 32 -32 -33 -34 -35 -36 -37 -38 38 -40
leaf_value=4.3120000000000003 -0.5079999999999999 -0.84800000000000042 -1.5630000000000004 -0.34099999999999969 -0.12100000000000009 0.41000000000000014 -1.7100000000000002 -3.1590000000000007 2.1950000000000003 -5.7129195869131948 -0.14799999999999969 -3.192190431186464 -0.25700000000000006 -1.2549999999999999 -0.82000000000000028 -0.76000000000000023 -1.0200000000000002 4.1950000000000003 -3.2400000000000002 0.010000000000000142 -1.2600000000000002 5.0120000000000005 -1.0860000000000001 -1.0600000000000003 0.0050000000000004268 -1.1100000000000001 -3.2400000000000002 -0.42800000000000016 -3.192190431186464 -0.98999999999999988 -2.0480000000000005 0.58200000000000007 -0.76000000000000023 -0.52099999999999935 -0.35700000000000004 1.0590000000000004 -2.4400000000000008 -0.83599999999999997 -0.41799999999999998
leaf_weight=84 280 565 229 789 392 4132 87 24 31 34 1138 38 282 27 195 102 45 18574 20 274 355 235 382 305 584 672 28 650 32 365 79 20 743 724 331 682 36 593 259
leaf_count=84 280 565 229 789 392 4132 87 24 31 34 1138 38 282 27 195 102 45 18574 20 274 355 235 382 305 584 672 28 650 32 365 79 20 743 724 331 682 36 593 259
internal_value=0 -0.00670693 -0.00343607 -0.00288645 -0.00105167 0.00204509 -0.0144589 0.0074925 -0.0121026 -0.0353266 -0.00840831 -0.00563598 -0.0136128 -0.0169704 -0.0252775 -0.0343225 -0.0492211 0.0076537 -0.00325365 -0.00986183 -0.0162898 0.00322056 -0.0100278 -0.00829877 -0.00523619 -0.0148057 -0.00466267 -0.00933856 -0.0113217 -0.0107307 -0.0596273 -0.0196611 -0.0136953 -0.00756703 -0.0101521 0.00428447 -0.0416872 -0.0116968 -0.0139251
internal_weight=0 15415 10851 10622 8419 5930 4564 19002 149 65 2489 1854 4441 2274 448 253 151 18853 279 2203 635 259 2167 1785 1220 1826 1816 678 1929 1897 106 692 1108 1116 636 4814 123 1134 852
internal_count=34417 15415 10851 10622 8419 5930 4564 19002 149 65 2489 1854 4441 2274 448 253 151 18853 279 2203 635 259 2167 1785 1220 1826 1816 678 1929 1897 106 692 1108 1116 636 4814 123 1134 852
cat_boundaries=0 1 2 3 4
cat_threshold=1 2 2 2
shrinkage=0.1


Tree=3
num_leaves=40
num_cat=11
split_feature=3 26 23 23 23 26 15 17 2 6 17 15 16 23 26 23 14 16 14 17 23 16 16 25 2 16 17 16 15 2 2 2 2 26 14 14 3 3 17
split_gain=1.92996 0.530913 0.26012 0.148313 0.0810164 0.0747641 0.0646032 0.0644006 0.0752361 0.0728869 0.0584926 0.0742277 0.0434951 0.0391746 0.03669 0.0342574 0.0556994 0.0754844 0.0314243 0.0239958 0.0614745 0.0907201 0.111695 0.0224052 0.0216363 0.0210141 0.0205758 0.0243349 0.0198973 0.0188786 0.0313208 0.0208466 0.0188543 0.018717 0.0186256 0.0185636 0.0180607 0.0176671 0.0169498
threshold=1.5000000000000002 0 1 2 3 4 1.5000000000000002 5.5000000000000009 -0.13504210208518036 1.5000000000000002 13.500000000000002 14.500000000000002 1303.5000000000002 5 6 7 364.50000000000006 1836.5000000000002 47.500000000000007 43.500000000000007 8 1688.5000000000002 1420.5000000000002 9 -0.066266779411335366 2827.5000000000005 9.5000000000000018 1428.5000000000002 1.5000000000000002 -0.057330674857489834 -0.052474367469262734 -0.088091418661618792 0.02639123461956636 10 21.500000000000004 362.50000000000006 3.5000000000000004 3.5000000000000004 10.500000000000002
decision_type=2 1 1 1 1 1 10 2 2 10 2 10 10 1 1 1 2 10 2 2 1 10 10 9 2 10 2 10 10 2 2 2 2 1 2 2 2 2 2
left_child=3 7 15 14 10 -5 18 8 -2 -10 11 24 -13 35 -1 16 34 -18 37 -9 21 22 -21 36 -4 28 27 -26 -12 31 -31 -30 -32 -17 -3 -7 -8 -6 -15
right_child=1 2 4 5 6 13 23 19 9 -11 25 12 -14 38 -16 33 17 -19 -20 20 -22 -23 -24 -25 26 -27 -28 -29 29 30 32 -33 -34 -35 -36 -37 -38 -39 -40
leaf_value=-1.4366999999999999 3.8808000000000002 -0.062199999999999991 -0.16089999999999949 -1.7390000000000001 -0.72519999999999962 -1.3332000000000002 -0.9480000000000004 3.7755000000000005 1.8104999999999998 -5.141627628221876 0.13659999999999997 -1.4152000000000002 -0.26790000000000019 -1.2234000000000003 -0.48100000000000026 0.91899999999999982 0.8342190431186467 -2.8729713880678176 0.023799999999999957 9.9604999999999997 4.6755000000000004 6.6104999999999992 -6.850307820980496 -0.69400000000000051 0.16679999999999995 0.62210000000000043 -0.33130000000000026 -1.0213000000000001 -0.32919999999999949 -0.77050000000000063 -0.14899999999999949 0.25400000000000061 -0.80140000000000033 -0.80670000000000008 0.34209999999999996 -0.93940000000000057 -0.39900000000000024 0.69500000000000028 -0.87099999999999944
leaf_weight=70 77 1311 643 134 343 911 558 18260 27 34 718 127 84 405 1181 1872 33 20 517 21 303 56 23 535 45 268 360 113 666 108 400 469 91 28 1893 120 60 23 1510
leaf_count=70 77 1311 643 134 343 911 558 18260 27 34 718 127 84 405 1181 1872 33 20 517 21 303 56 23 535 45 268 360 113 666 108 400 469 91 28 1893 120 60 23 1510
internal_value=0 0.00380941 -0.00161195 -0.0187453 -0.00600618 -0.0224759 -0.0111462 0.00706262 -0.0137992 -0.0373659 -0.00340697 -0.00871315 -0.0255448 -0.0213559 -0.00920388 0.0036158 0.00162546 -0.0278285 -0.00468763 0.00722419 -0.000398854 -0.0196992 -0.0507977 -0.0161053 -0.00546214 -0.00072083 -0.0102083 -0.0194216 -0.0016489 -0.00347649 -0.00796943 -0.00105643 -0.00435424 0.0069752 0.00220281 -0.0268427 -0.0203767 -0.0116438 -0.0180446
internal_weight=0 30086 11285 4331 6128 3080 2036 18801 138 61 4092 1372 211 2946 1251 5157 3257 53 883 18663 403 100 44 1153 1161 2720 518 158 2452 1734 599 1135 491 1900 3204 1031 618 366 1915
internal_count=34417 30086 11285 4331 6128 3080 2036 18801 138 61 4092 1372 211 2946 1251 5157 3257 53 883 18663 403 100 44 1153 1161 2720 518 158 2452 1734 599 1135 491 1900 3204 1031 618 366 1915
cat_boundaries=0 1 3 5 6 7 8 9 10 12 14 15
cat_threshold=1 2351829088 1 2224816160 1 546393370 4 1396778644 4 2284195840 6152 1 2097152 64 2
shrinkage=0.1


Tree=4
num_leaves=40
num_cat=12
split_feature=26 23 26 25 23 23 25 26 17 13 17 8 17 15 23 16 19 17 6 13 17 16 26 23 15 6 13 1 8 15 15 17 1 1 1 15 1 13 16
split_gain=1.36124 0.409497 0.120058 0.113606 0.102192 0.0935612 0.0617064 0.0661762 0.0612962 0.214635 0.0569697 0.148575 0.0427727 0.0693532 0.0447445 0.040239 0.0355474 0.112693 0.0353529 0.0326446 0.0352864 0.0307265 0.0290951 0.0275654 0.0255692 0.0249233 0.0228908 0.025386 0.0200984 0.0186666 0.0185966 0.0183852 0.0183501 0.0211585 0.017883 0.017535 0.0173422 0.0170975 0.0164178
threshold=0 1 2 3 4 5 6 7 10.500000000000002 0.99863013698630143 5.5000000000000009 101.00000000000001 12.500000000000002 21.500000000000004 8 1335.5000000000002 9 34.500000000000007 1.5000000000000002 0.028767123287671236 8.5000000000000018 2776.5000000000005 10 11 2.5000000000000004 1.5000000000000002 0.017808219178082195 51.434272743254105 499.50000000000006 2.5000000000000004 1.0000000180025095e-35 18.500000000000004 51.53107596700405 51.532958229256401 51.53955484524451 181.50000000000003 51.470067593964252 0.3246575342465754 1303.5000000000002
decision_type=1 1 1 9 1 1 9 1 2 2 2 8 2 10 1 10 1 2 8 2 2 10 1 1 10 10 2 2 10 10 10 2 2 2 2 8 2 2 10
left_child=10 2 5 4 19 -2 7 12 9 -7 11 -1 13 32 -14 -9 17 21 35 20 30 -12 29 25 -16 -18 28 -28 34 -21 -3 -17 -5 -34 36 -6 -10 -4 -15
right_child=1 3 37 6 18 8 -8 15 26 -11 16 -13 14 38 24 31 23 -19 -20 22 -22 -23 -24 -25 -26 -27 27 -29 -30 -31 -32 -33 33 -35 -36 -37 -38 -39 -40
leaf_value=-4.6037561085263041 0.61220000000000074 -0.74290999999999985 -0.72603000000000018 -0.49817000000000039 -1.0506800000000005 -0.44011 0.24561999999999956 0.14889999999999973 -0.38398000000000043 -2.988946412332965 3.9332499999999997 3.8107199999999999 -0.2085000000000001 -1.2736800000000004 -0.37085999999999975 -1.3651000000000004 -0.60204999999999986 -2.2309692179019502 -0.6661999999999999 -0.077559999999999726 -0.58027000000000017 -3.2206500000000009 -1.4798000000000002 3.5829499999999999 -0.73960000000000015 1.7329499999999998 -0.5762799999999999 0.060589999999999838 -2.9097799999999996 -0.52310000000000023 -3.5988699999999998 -2.122100000000001 -2.9128599999999998 -0.69008000000000047 -0.47577999999999965 -0.8598100000000003 0.024220000000000397 -1.2930299999999997 -0.4606800000000007
leaf_weight=36 2459 23 72 620 1126 874 457 20 404 23 239 113 1531 103 504 37 332 20 314 499 368 20 26 17557 537 685 200 2610 22 541 22 21 20 290 381 438 746 105 22
leaf_count=36 2459 23 72 620 1126 874 457 20 404 23 239 113 1531 103 504 37 332 20 314 499 368 20 26 17557 537 685 200 2610 22 541 22 21 20 290 381 438 746 105 22
internal_value=0 -0.00622934 -0.00118676 -0.0114993 -0.0158576 -0.000580965 -0.00792494 -0.00927925 -0.00295824 -0.010445 0.00641376 -0.012507 -0.00861936 -0.0139741 -0.00637732 -0.0365522 0.00656985 -0.00445246 -0.0208147 -0.00936936 -0.0169123 0.00203676 -0.00640406 0.00673649 -0.0113752 0.001597 -0.00140541 0.000299902 -0.00447318 -0.00538001 -0.0411068 -0.0481573 -0.010758 -0.017001 -0.00392711 -0.02289 -0.00192196 -0.0262253 -0.0353323
internal_weight=0 15415 7896 7519 3357 7719 4162 3705 5260 897 19002 149 3627 1055 2572 78 18853 279 1878 1479 413 259 1066 18574 1041 1017 4363 2810 1553 1040 45 58 930 310 1531 1564 1150 177 125
internal_count=34417 15415 7896 7519 3357 7719 4162 3705 5260 897 19002 149 3627 1055 2572 78 18853 279 1878 1479 413 259 1066 18574 1041 1017 4363 2810 1553 1040 45 58 930 310 1531 1564 1150 177 125
cat_boundaries=0 1 3 4 6 7 9 11 12 13 14 15 16
cat_threshold=1 2352748640 1 2 2621440 64 545407258 67633248 1 671088706 2 2 553845769 2 2 1375732117
shrinkage=0.1


Tree=5
num_leaves=40
num_cat=11
split_feature=3 26 23 23 15 23 17 8 11 11 17 15 26 23 0 17 1 17 1 26 26 8 23 3 17 15 17 17 25 11 1 0 3 25 17 8 17 8 15
split_gain=1.68572 0.404417 0.20481 0.13853 0.0808758 0.0651173 0.0621488 0.14202 0.0609376 0.0484971 0.044507 0.0834525 0.0396466 0.0394558 0.0388824 0.104227 0.0347135 0.030074 0.0287937 0.0272934 0.0248683 0.0246743 0.0239847 0.0443438 0.0201271 0.0198904 0.0193775 0.0242364 0.0185227 0.0177702 0.0177644 0.027733 0.0169872 0.0169421 0.0167231 0.0186355 0.0164758 0.0257937 0.0286654
threshold=1.5000000000000002 0 1 2 10.500000000000002 3 5.5000000000000009 101.00000000000001 1.0000000180025095e-35 19.500000000000004 12.500000000000002 14.500000000000002 4 5 43.500000000000007 34.500000000000007 51.480229410028777 9.5000000000000018 51.543802210171755 6 7 74.500000000000014 8 3.5000000000000004 3.5000000000000004 1.5000000000000002 9.5000000000000018 8.5000000000000018 9 15.500000000000002 51.54495865678701 77.500000000000014 3.5000000000000004 10 46.500000000000007 122.50000000000001 20.500000000000004 72.500000000000014 12.500000000000002
decision_type=2 1 1 1 10 1 2 8 2 2 2 10 1 1 8 2 2 2 2 1 1 8 1 2 2 10 2 2 9 2 2 8 2 9 2 10 2 8 10
left_child=3 6 16 12 -5 10 7 -2 28 33 11 24 -1 -14 15 17 -3 -8 19 -18 -6 -13 -16 -24 -4 -12 27 -20 32 36 -26 -32 -7 -10 -25 -36 37 38 -27
right_child=1 2 5 4 20 8 14 -9 9 -11 25 21 13 -15 22 -17 18 -19 26 -21 -22 -23 23 34 30 29 -28 -29 -30 -31 31 -33 -34 -35 35 -37 -38 -39 -40
leaf_value=-1.1637269999999997 -4.1433804976736734 -0.036469000000000307 -3.2389829999999997 -1.0152300000000005 -1.9098900000000012 -0.44269899999999968 -2.8985850000000006 3.7343827215135068 -0.64615000000000011 -0.240372 0.19846700000000014 -1.1463120000000004 -0.19412000000000021 -0.7851589999999995 3.674655 -2.007872296111755 0.66873100000000041 3.9399249999999997 -0.22390199999999966 -0.74160699999999979 -1.1755900000000004 -0.10141200000000056 -0.060344999999999517 3.0596549999999993 -0.071202000000000251 -0.31545899999999921 0.0609800000000007 -2.2867796080277389 0.70083799999999963 0.1644500000000001 -2.8890589999999996 -0.34785900000000042 1.1880399999999995 -0.89913200000000026 -5.4127642179019508 4.4196549999999997 -0.0092689999999997497 -0.16529200000000019 -1.0005499999999992
leaf_weight=108 36 1774 25 1770 23 868 21 102 280 237 805 124 787 1292 14738 20 2890 210 56 46 351 43 1310 2316 637 178 696 25 135 299 25 186 57 459 20 28 721 581 138
leaf_count=108 36 1774 25 1770 23 868 21 102 280 237 805 124 787 1292 14738 20 2890 210 56 46 351 43 1310 2316 637 178 696 25 135 299 25 186 57 459 20 28 721 581 138
internal_value=0 0.00333793 -0.00139372 -0.0177414 -0.0234942 -0.00552801 0.00617726 -0.0142999 -0.0100705 -0.015789 -0.00302938 -0.00856859 -0.0118595 -0.0108344 0.00633625 -0.00584948 0.00298165 0.00129651 0.00472185 0.00615019 -0.0371001 -0.028392 0.00650546 0.00415661 -0.0044979 -0.00090048 -0.000684905 -0.0144121 -0.00480083 -0.00264912 -0.00348392 -0.0112104 -0.00636171 -0.0197383 0.00674519 -0.0102812 -0.0039576 -0.00679409 -0.0139239
internal_weight=0 30086 11285 4331 2144 5798 18801 138 2036 976 3762 1040 2187 2079 18663 251 5487 231 3713 2936 374 167 18412 3674 873 2722 777 81 1060 1917 848 211 925 739 2364 48 1618 897 316
internal_count=34417 30086 11285 4331 2144 5798 18801 138 2036 976 3762 1040 2187 2079 18663 251 5487 231 3713 2936 374 167 18412 3674 873 2722 777 81 1060 1917 848 211 925 739 2364 48 1618 897 316
cat_boundaries=0 1 3 5 6 7 9 10 11 13 15 16
cat_threshold=1 2352877666 1 2361137184 1 545344792 4 786464 1 2 4 2913881696 1 136314882 64 4106
shrinkage=0.1


Tree=6
num_leaves=40
num_cat=2
split_feature=6 2 1 1 2 4 17 2 15 1 17 24 20 2 15 12 17 0 12 14 1 1 1 2 12 17 1 6 1 15 15 15 6 2 2 2 1 2 15
split_gain=0.495599 0.348613 0.140131 0.17155 0.140465 0.100653 0.0848821 0.0871282 0.0820776 0.0932705 0.0737567 0.0572645 0.0758591 0.0540136 0.0584995 0.0533679 0.0715231 0.0962757 0.05042 0.0504486 0.0352793 0.0306838 0.029632 0.0288846 0.0282828 0.104787 0.146971 0.0329741 0.024295 0.0280639 0.0231013 0.0935887 0.0271892 0.0232909 0.0220009 0.0997123 0.0205813 0.0248379 0.0205
threshold=1.5000000000000002 -0.066266779411335366 51.451954089625268 51.562265579712708 -0.22978880368779955 1.2500000000000002 10.500000000000002 0.047883311450971668 12.500000000000002 51.51285573939726 5.5000000000000009 0 1 -0.13504210208518036 7.5000000000000009 5.5000000000000009 9.5000000000000018 77.500000000000014 5.5000000000000009 159.50000000000003 51.445177696587088 51.549997897270593 51.487885327591641 -0.19868656775494059 1.5000000000000002 43.500000000000007 51.489919770713492 5.5000000000000009 51.510597212586894 12.500000000000002 17.500000000000004 18.500000000000004 1.0000000180025095e-35 -0.10723949126984224 -0.061931961283154764 -0.060824214309078729 51.414612092481768 -0.19618899158432682 3.5000000000000004
decision_type=10 2 2 2 2 10 2 2 10 2 2 1 1 2 8 2 2 8 2 2 2 2 2 2 2 2 2 10 2 10 10 10 8 2 2 2 2 2 10
left_child=1 2 23 4 28 6 18 20 -7 -10 13 -11 -13 -2 -15 22 17 -17 -3 -20 -8 -22 30 -1 25 27 -27 34 -4 -30 32 -32 -6 -34 -12 -36 -25 -38 -9
right_child=10 5 3 -5 15 8 7 38 9 11 24 12 -14 14 -16 16 -18 -19 19 -21 21 -23 -24 36 -26 26 -28 -29 29 -31 31 -33 33 -35 35 -37 37 -39 -40
leaf_value=-0.22596279999999994 2.6212097278486506 -0.75825100000000001 -0.21320309999999978 -0.52538099999999943 -2.6151550999999995 -0.61255999999999922 -0.76722499999999982 -0.67222909999999991 -0.54636210000000107 -0.8924909999999997 1.7411960000000009 -1.1304808000000002 -3.2203237979666599 1.2879993000000001 -3.6933085553123073 -2.0581016472249654 -0.007559999999998724 -0.89333310000000099 -0.99962909999999994 -2.6001531 -0.10188010000000035 -0.45921880000000004 0.75729390000000052 -0.84848580000000029 3.1571894999999999 -2.4730606835415916 1.828805 -1.2473543 -0.38287279999999985 -0.8993430999999994 -6.119310500000001 -0.059142099999999691 0.67218950000000044 -0.31880609999999909 -6.4928105000000009 0.2536894999999994 -2.6331327080277394 -0.4663921000000002 -1.0103550000000006
leaf_weight=545 49 629 829 1512 29 594 235 283 73 52 2840 44 20 21 38 20 867 101 66 27 2352 557 7330 481 10416 29 53 111 489 156 21 376 1233 289 22 653 21 736 218
leaf_count=545 49 629 829 1512 29 594 235 283 73 52 2840 44 20 21 38 20 867 101 66 27 2352 557 7330 481 10416 29 53 111 489 156 21 376 1233 289 22 653 21 736 218
internal_value=0 -0.00259805 -0.000163927 0.000957974 0.00225123 -0.00969019 -0.00778463 -0.00579138 -0.0200858 -0.0378716 0.00510516 -0.0544175 -0.0732592 -0.0198398 -0.0379129 0.00356292 -0.00339764 -0.0251763 -0.0176309 -0.0385405 -0.00380926 -0.00282784 0.004307 -0.0084612 0.0053098 0.0029263 -0.0304249 0.00376212 -0.00684677 -0.0114084 0.000835154 -0.00587991 0.00258062 0.00322877 0.00431017 -0.000812049 -0.0111161 -0.00769654 -0.0179121
internal_weight=0 20185 15035 13252 11740 5150 4367 3645 783 189 14232 116 64 108 59 10266 988 121 722 93 3144 2909 9278 1783 14124 3708 82 3626 1474 645 1948 397 1551 1522 3515 675 1238 757 501
internal_count=34417 20185 15035 13252 11740 5150 4367 3645 783 189 14232 116 64 108 59 10266 988 121 722 93 3144 2909 9278 1783 14124 3708 82 3626 1474 645 1948 397 1551 1522 3515 675 1238 757 501
cat_boundaries=0 1 2
cat_threshold=2 2
shrinkage=0.1


Tree=7
num_leaves=40
num_cat=10
split_feature=3 9 23 23 23 3 9 13 9 2 0 13 1 9 11 19 13 9 3 23 0 1 23 2 2 13 13 11 1 22 2 20 1 23 20 11 2 13 2
split_gain=1.40834 0.29116 0.140358 0.112361 0.0977243 0.0885124 0.0800305 0.0523783 0.0361927 0.0360208 0.0710401 0.0893262 0.13362 0.0313872 0.0303043 0.0288135 0.0466867 0.0306435 0.0262802 0.0258623 0.0258097 0.0516779 0.101876 0.227555 0.0282461 0.0227323 0.0223906 0.0214226 0.018531 0.025281 0.01847 0.0252281 0.0179222 0.017839 0.0252531 0.0176492 0.0174613 0.0258489 0.0223741
threshold=1.5000000000000002 17.500000000000004 0 1 2 3.5000000000000004 14.500000000000002 0.031506849315068496 18.500000000000004 -0.081568153711593316 77.500000000000014 0.4808219178082192 51.515670722293656 1.0000000180025095e-35 1.0000000180025095e-35 3 0.74109589041095891 13.500000000000002 2.5000000000000004 4 97.500000000000014 51.491726530790281 5 -0.14009503795783501 -0.11369929510775452 0.99315068493150693 0.04246575342465754 1.0000000180025095e-35 51.531588539319053 6 -0.056452658246600375 7 51.446950190945493 8 9 21.500000000000004 -0.27557475601800419 0.020547945205479454 -0.29977453354567729
decision_type=2 8 1 1 1 2 8 2 10 2 8 2 2 10 2 1 2 10 2 1 8 2 1 2 2 2 2 2 2 1 2 1 2 1 1 2 2 2 2
left_child=3 2 30 19 5 7 -5 -3 9 -6 11 -11 -13 14 -4 16 36 -18 -16 -1 21 22 23 -10 -25 28 -24 -9 32 -30 -2 -32 -8 -17 -35 -21 38 -38 -15
right_child=1 4 13 6 8 -7 25 27 20 10 -12 12 -14 15 18 33 17 -19 -20 35 -22 -23 26 24 -26 -27 -28 -29 29 -31 31 -33 -34 34 -36 -37 37 -39 -40
leaf_value=-0.24043738999999961 0.17445895000000036 -0.68578399999999962 0.45591100999999984 -1.0230829000000001 0.6361285099999997 1.4529705499999992 -1.0879970000000008 0.087421999999999403 -3.0504859124645907 0.0092230000000000697 0.061945299999999294 0.023262309999999786 -2.3517630816457085 -0.65698579000000024 -0.62778900000000071 -0.097702789999999595 -0.53361060000000016 -1.0546557000000001 -0.068183299999999752 -0.67012788999999984 2.3914705499999998 2.1964601100000012 -5.880879450000001 1.4309589500000002 -3.4638714900000007 -0.47164609000000013 2.94147055 -0.4452307900000001 -1.0054929000000001 -0.60373898999999942 -0.13964381999999986 -2.8766846202033345 -0.68455205000000063 -0.84168070000000061 -0.3634868999999995 0.038094999999999858 -1.2544327199999998 -0.27738208999999969 -5.6108761900000008
leaf_weight=623 3254 538 389 618 3810 1204 192 831 30 63 1514 22 21 40 325 573 159 163 267 1088 13159 1565 30 81 22 179 265 417 482 166 124 33 907 85 477 76 122 476 27
leaf_count=623 3254 538 389 618 3810 1204 192 831 30 63 1514 22 21 40 325 573 159 163 267 1088 13159 1565 30 81 22 179 265 417 482 166 124 33 907 85 477 76 122 476 27
internal_value=0 0.00276028 -0.00315394 -0.0165069 0.00439529 -0.000948422 -0.020801 -0.00540701 0.00516961 0.00294869 -0.000997106 -0.0248485 -0.0551037 -0.00799516 -0.00329796 -0.0101785 -0.0141497 -0.0240665 -0.0077524 -0.0101398 0.00596646 0.00259525 -0.00703188 -0.027895 -0.00453401 -0.0175338 0.00377133 -0.00181281 -0.0186377 -0.0231115 0.00128027 -0.00898177 -0.0158152 -0.00645183 -0.0104093 -0.0129612 -0.0092721 -0.00729692 -0.0236641
internal_weight=0 30086 6514 4331 23572 2990 2544 1786 20582 5430 1620 106 43 3103 981 2122 987 322 592 1787 15152 1993 428 133 103 1926 295 1248 1747 648 3411 157 1099 1135 562 1164 665 598 67
internal_count=34417 30086 6514 4331 23572 2990 2544 1786 20582 5430 1620 106 43 3103 981 2122 987 322 592 1787 15152 1993 428 133 103 1926 295 1248 1747 648 3411 157 1099 1135 562 1164 665 598 67
cat_boundaries=0 2 4 5 6 8 10 11 12 13 14
cat_threshold=2352748640 1 2359035936 1 1380049559 16 67895296 1 2097152 1 2 2 813827840 4
shrinkage=0.1


Tree=8
num_leaves=40
num_cat=4
split_feature=26 26 12 2 25 5 9 0 25 13 9 12 2 2 13 0 10 9 0 2 9 9 9 2 9 8 12 9 10 8 13 9 13 2 2 2 12 9 0
split_gain=1.03584 0.209997 0.208097 0.145559 0.0654908 0.0597895 0.0573806 0.0498675 0.0481446 0.0450361 0.0676631 0.0569141 0.0433406 0.0432618 0.0398383 0.0328748 0.0663227 0.031808 0.0300746 0.0347048 0.0282439 0.0259842 0.024907 0.0243727 0.0201356 0.021477 0.0208411 0.0173476 0.0162621 0.015743 0.0129972 0.0129918 0.0127672 0.012689 0.0946861 0.0148313 0.0177668 0.0234552 0.0370819
threshold=0 1 4.5000000000000009 -0.068659186322806473 2 2.5000000000000004 8.5000000000000018 48.500000000000007 3 0.84246575342465768 20.500000000000004 1.5000000000000002 -0.2251805067496197 0.047883311450971668 0.067123287671232892 43.500000000000007 3.5000000000000004 12.500000000000002 73.500000000000014 -0.053765683255827833 14.500000000000002 25.500000000000004 13.500000000000002 -0.055643615779897938 14.500000000000002 879.50000000000011 2.5000000000000004 28.500000000000004 1.5000000000000002 277.50000000000006 0.97671232876712344 29.500000000000004 0.14383561643835618 -0.061931961283154764 -0.060824214309078729 -0.21669873495146477 1.5000000000000002 11.500000000000002 99.500000000000014
decision_type=1 1 2 2 9 10 8 10 9 2 8 2 2 2 2 8 2 8 10 2 10 8 10 2 10 10 2 10 2 8 2 8 2 2 2 2 2 10 10
left_child=15 2 3 8 13 20 -3 -7 12 27 11 -11 28 14 18 16 23 -15 -5 -20 -4 33 -13 -1 26 29 -14 32 -2 -26 -19 -16 -6 35 -35 36 37 -17 -39
right_child=1 6 5 4 9 7 -8 -9 -10 10 -12 22 24 17 31 21 -18 30 19 -21 -22 -23 -24 -25 25 -27 -28 -29 -30 -31 -32 -33 -34 34 -36 -37 -38 38 -40
leaf_value=3.1115185389999995 -0.40574937099999958 -1.2560709010000002 -0.7702013299999998 -0.47072258500000008 -0.29985068499999984 -0.73776680000000006 -0.95423111100000035 -1.617115174337898 0.84078005500000053 -0.32671773799999926 0.17632561900000071 -0.48323254000000021 -0.11065390099999989 -1.0058870600000007 -0.45216005500000095 0.56107628999999981 -1.2547304068999612 -0.79960489999999995 -2.5890161581830009 -0.62629258099999996 -0.37899110099999977 2.8939228450000005 -0.94919012999999985 -2.11353488183543 -0.014187385000000319 -2.0485909987535407 -0.42613265100000036 0.83043584500000023 0.30178261499999981 0.60140005499999916 0.072036468999998965 -0.14915920000000044 -0.078622810999999626 -5.8337591710000005 0.27823045500000065 1.4855805450000006 0.67882349500000183 0.62042284500000167 -4.8633287827575966
leaf_weight=190 1590 124 1131 306 1010 23 228 20 746 139 179 52 3645 136 464 92 34 189 31 115 550 14908 137 38 1756 38 666 145 132 695 45 341 782 27 843 2511 284 35 40
leaf_count=190 1590 124 1131 306 1010 23 228 20 746 139 179 52 3645 136 464 92 34 189 31 115 550 14908 137 38 1756 38 666 145 132 695 45 341 782 27 843 2511 284 35 40
internal_value=0 -0.005967 -0.00539103 -0.0040478 -0.00902467 -0.0157006 -0.0297845 -0.0493546 -0.00185433 -0.00563574 -0.0139616 -0.0222887 -0.00253013 -0.0139303 -0.0110609 0.0050619 -0.00589809 -0.0234976 -0.0185049 -0.03009 -0.014553 0.00521819 -0.0331737 0.000921652 -0.00139332 0.000869248 -0.00269862 -0.00342491 -0.00699993 0.00127446 -0.0153415 -0.00670538 -0.00428354 0.00288422 -0.000469604 0.00386757 -0.00138675 -0.00927704 -0.0212606
internal_weight=0 15415 15063 13339 4071 1724 352 43 9268 2444 507 328 8522 1627 1257 19002 262 370 452 146 1681 18740 189 228 6800 2489 4311 1937 1722 2451 234 805 1792 3832 870 2962 451 167 75
internal_count=34417 15415 15063 13339 4071 1724 352 43 9268 2444 507 328 8522 1627 1257 19002 262 370 452 146 1681 18740 189 228 6800 2489 4311 1937 1722 2451 234 805 1792 3832 870 2962 451 167 75
cat_boundaries=0 1 2 4 6
cat_threshold=1 2 136314880 64 539500610 64
shrinkage=0.1


Tree=9
num_leaves=40
num_cat=4
split_feature=26 26 2 1 1 25 9 2 1 17 9 13 13 17 16 1 2 13 2 15 15 2 17 17 15 2 16 16 9 2 17 9 2 2 15 17 25 13 17
split_gain=0.865914 0.199621 0.147348 0.0775551 0.107091 0.0623306 0.0580703 0.0553641 0.0553665 0.0531633 0.259377 0.0406202 0.0617979 0.0615371 0.0776984 0.0661035 0.0354945 0.0433862 0.0259051 0.0304068 0.0246901 0.0236562 0.0228621 0.0220414 0.0213349 0.0290081 0.0482043 0.0213243 0.0208985 0.0184558 0.0211321 0.0181485 0.0186668 0.0627769 0.0553673 0.0318208 0.01811 0.0174138 0.0195556
threshold=0 1 -0.066266779411335366 51.443453284810936 51.547672901772096 2 8.5000000000000018 -0.19955833099533213 51.480972064929951 5.5000000000000009 25.500000000000004 0.84246575342465768 0.98219178082191794 12.500000000000002 1266.5000000000002 51.525720178299906 0.047883311450971668 0.067123287671232892 -0.19868656775494059 1.0000000180025095e-35 6.5000000000000009 -0.20054864862359692 11.500000000000002 37.500000000000007 2.5000000000000004 -0.053765683255827833 1764.5000000000002 2048.5000000000005 12.500000000000002 -0.099386961477701055 13.500000000000002 33.500000000000007 -0.061931961283154764 -0.060824214309078729 9.5000000000000018 7.5000000000000009 3 0.015068493150684932 27.500000000000004
decision_type=1 1 2 2 2 9 8 2 2 2 8 2 2 2 10 2 2 2 2 10 10 2 2 2 10 2 10 8 8 2 2 10 2 2 10 2 9 2 2
left_child=9 2 3 18 7 16 -3 21 37 10 -1 -7 13 14 -13 20 17 24 -2 -20 -16 27 -21 -19 -4 26 -26 36 -18 -6 -31 32 -11 34 -34 -35 -5 38 -9
right_child=1 6 5 4 29 11 -8 8 -10 31 -12 12 -14 -15 15 -17 28 23 19 22 -22 -23 -24 -25 25 -27 -28 -29 -30 30 -32 -33 33 35 -36 -37 -38 -39 -40
leaf_value=-3.7620613227760824 -0.24544673390000044 -1.1304638109 -0.4928629719 -0.37310299489999965 -0.32987670989999957 -0.24277947687966589 -0.85880799990000023 -0.28808164650000023 0.3623503535000005 1.4519549744999993 3.4811649311199981 0.10581536580000091 0.11609811300000034 -0.45951779200000048 -0.21336020700000022 -1.9432499644016392 -0.90162703500000063 -0.36420858549999979 -0.29552304650000066 -1.2280064299000004 -0.83302211699999951 -1.9880822591120244 -0.61629059989999968 -2.6178023447033341 -2.3301145423647007 -0.55022295249999975 -0.60101814950000054 0.046307296100000173 -0.66260831000000031 -0.77926428589999908 -0.27834651800000004 3.0764312105000005 0.21947526050000052 -1.9021813936518868 -5.2503832539000008 0.45114127950000127 0.26770460949999947 -0.052288394899999702 -1.8437318988781866
leaf_weight=21 387 124 323 1332 1632 2093 228 408 3778 6652 128 31 159 217 22 20 150 855 308 85 83 29 521 23 20 157 23 569 265 248 323 10376 24 24 20 1757 215 761 26
leaf_count=21 387 124 323 1332 1632 2093 228 408 3778 6652 128 31 159 217 22 20 150 855 308 85 83 29 521 23 20 157 23 569 265 248 323 10376 24 24 20 1757 215 761 26
internal_value=0 -0.00549466 -0.00493336 -0.0029061 -0.00189094 -0.00976473 -0.0287144 -1.96365e-06 0.00182953 0.00458913 -0.0136582 -0.006522 -0.0142818 -0.0211645 -0.035769 -0.0461825 -0.0142768 -0.011795 -0.0101093 -0.0129918 -0.0305616 -0.00423691 -0.0170633 -0.00736344 -0.0189568 -0.0271285 -0.0486129 -0.00376794 -0.0225163 -0.00796671 -0.012857 0.00474051 0.00364651 0.000808051 -0.0327914 0.00181659 -0.00568345 -0.00408002 -0.00905881
internal_weight=0 15415 15063 10622 9321 4441 352 7118 4973 19002 149 2625 532 373 156 125 1816 1401 1301 914 105 2145 606 878 523 200 43 2116 415 2203 571 18853 8477 1825 44 1781 1547 1195 434
internal_count=34417 15415 15063 10622 9321 4441 352 7118 4973 19002 149 2625 532 373 156 125 1816 1401 1301 914 105 2145 606 878 523 200 43 2116 415 2203 571 18853 8477 1825 44 1781 1547 1195 434
cat_boundaries=0 1 2 4 6
cat_threshold=1 2 136314880 64 2097154 2
shrinkage=0.1


Tree=10
num_leaves=40
num_cat=1
split_feature=3 3 2 1 1 2 15 15 1 1 2 6 11 12 15 2 12 15 15 8 15 0 0 2 1 1 8 11 11 1 1 1 2 0 14 8 14 24 1
split_gain=1.02408 0.153977 0.110148 0.0737102 0.0775473 0.0591313 0.0748721 0.0559476 0.0460086 0.0381836 0.0425783 0.0327363 0.0293988 0.0271164 0.0316017 0.0319249 0.0269643 0.0399986 0.0267606 0.0645647 0.0956472 0.0302671 0.057859 0.0684803 0.0465244 0.228237 0.0229106 0.0227535 0.0217412 0.0234825 0.0216206 0.0205891 0.0216087 0.0204253 0.0199852 0.019413 0.0179427 0.0177271 0.0253379
threshold=1.5000000000000002 2.5000000000000004 -0.067872728424701476 51.443453284810936 51.548193197160082 -0.058154812307572822 10.500000000000002 28.500000000000004 51.512295492440188 51.487885327591641 -0.22000117385870385 1.0000000180025095e-35 1.0000000180025095e-35 4.5000000000000009 1.5000000000000002 0.047883311450971668 2.5000000000000004 2.5000000000000004 32.500000000000007 77.500000000000014 33.500000000000007 77.500000000000014 75.500000000000014 -0.13601489716668838 51.490324530455943 51.486913856495953 76.500000000000014 19.500000000000004 1.0000000180025095e-35 51.487376542501345 51.470939032356249 51.554489533220298 -0.16097105765309347 89.500000000000014 1.5000000000000002 252.50000000000003 150.50000000000003 0 51.516816094328227
decision_type=2 2 2 2 2 2 10 10 2 2 2 8 2 2 10 2 2 10 10 8 10 8 10 2 2 2 8 2 2 2 2 2 2 8 2 8 2 1 2
left_child=5 2 3 -2 9 16 -7 13 -9 11 -11 -5 -6 14 -4 34 17 -1 21 20 -20 22 24 -24 25 -3 -10 -14 29 -13 33 32 35 -18 -16 -32 -19 -22 -39
right_child=1 18 7 4 12 6 -8 8 26 10 -12 28 27 -15 15 -17 30 36 19 -21 37 -23 23 -25 -26 -27 -28 -29 -30 -31 31 -33 -34 -35 -36 -37 -38 38 -40
leaf_value=-0.3219126154099996 -0.39441817091000075 1.2134998040500002 0.098927796187967237 -1.6593587089903679 -0.028240522950000013 -0.74320932245000015 -0.90665728900000075 -0.15303284145000051 -0.77096890529999984 -0.12564460840999986 0.87756942214999967 0.38210665375000019 -0.51455377631000021 -0.58871201931203321 -0.35913570381203286 -0.56287012049999952 -1.7892740332008221 -0.4812676838120325 -4.5221914019318366 1.0945054537499999 0.10933506304999981 2.1422717597500003 4.114778693449999 -1.3774772283141083 2.7969751081500003 -9.089543597561617 -0.42238164880000045 0.057262964489999749 -0.25391038624999923 -5.8898269105500001 -0.83095242991000129 -0.82163564941000056 -0.24263950335000006 -0.82043222460999921 -0.086195940950000258 -0.75828328040999871 -0.70322187140999981 0.13783638778796714 -1.3132723168499987
leaf_weight=971 1059 153 1220 21 1252 958 175 163 111 842 5025 1341 454 416 537 214 25 620 20 659 135 13743 21 20 450 24 105 161 734 35 153 233 375 204 1075 196 421 46 50
leaf_count=971 1059 153 1220 21 1252 958 175 163 111 842 5025 1341 454 416 537 214 25 620 20 659 135 13743 21 20 450 24 105 161 734 35 153 233 375 204 1075 196 421 46 50
internal_value=0 0.00206877 -0.000235922 0.00138409 0.00223682 -0.014361 -0.0206105 -0.00483495 -0.0162186 0.00359101 0.0049059 -3.5117e-05 -0.0035526 -0.00354561 -0.00249112 -0.00511332 -0.0120895 -0.00976632 0.00428853 -0.000961262 -0.0142917 0.00462048 -0.00192827 -0.0343203 0.000695392 -0.0126159 -0.0254655 -0.00915452 0.000436792 0.0027756 -0.0159161 -0.0135602 -0.0106658 -0.0247821 -0.00353392 -0.0162465 -0.0140552 -0.00706816 -0.0167477
internal_weight=0 30086 14765 10924 9865 4331 1133 3841 379 7998 5867 2131 1867 3462 3046 1826 3198 2012 15321 910 251 14411 668 41 627 177 216 615 2110 1376 1186 957 724 229 1612 349 1041 231 96
internal_count=34417 30086 14765 10924 9865 4331 1133 3841 379 7998 5867 2131 1867 3462 3046 1826 3198 2012 15321 910 251 14411 668 41 627 177 216 615 2110 1376 1186 957 724 229 1612 349 1041 231 96
cat_boundaries=0 1
cat_threshold=2
shrinkage=0.1


Tree=11
num_leaves=40
num_cat=3
split_feature=26 26 2 1 1 15 1 15 17 2 13 17 2 1 4 11 11 4 2 13 19 17 17 1 2 15 5 2 2 11 17 5 2 2 5 5 13 1 2
split_gain=0.698416 0.187868 0.110911 0.057084 0.0596892 0.0538302 0.0534025 0.0531946 0.0527144 0.0844741 0.0455223 0.0779951 0.0448711 0.0417381 0.0478029 0.0329498 0.0621207 0.0311362 0.0309447 0.0359686 0.029956 0.106585 0.0294763 0.0260652 0.0246226 0.0251248 0.0244786 0.0276451 0.0238682 0.0225568 0.0221397 0.0221108 0.0208218 0.0202919 0.0192772 0.0179265 0.0168711 0.0179302 0.0166038
threshold=0 1 -0.068659186322806473 51.410601080877903 51.547672901772096 9.5000000000000018 51.480972064929951 11.500000000000002 3.5000000000000004 -0.09037862734610895 0.99863013698630143 14.500000000000002 -0.22168363071960753 51.512295492440188 1.2500000000000002 14.500000000000002 9.5000000000000018 1.7500000000000002 0.047883311450971668 0.047945205479452059 2 34.500000000000007 12.500000000000002 51.462817736828875 0.059348176624076064 1.0000000180025095e-35 1.0000000180025095e-35 -0.061931961283154764 -0.055643615779897938 4.5000000000000009 14.500000000000002 2.5000000000000004 -0.14992668204646029 0.0049074733697473888 2.5000000000000004 1.0000000180025095e-35 0.0095890410958904115 51.560225158386139 0.047883311450971668
decision_type=1 1 2 2 2 10 2 10 2 2 2 2 2 2 10 2 2 10 2 2 1 2 2 2 2 10 10 2 2 2 2 10 2 2 10 8 2 2 2
left_child=8 2 3 -2 6 17 10 18 9 -1 32 -12 -8 23 22 16 -16 -3 19 30 21 28 -15 -9 29 -26 27 -22 -10 -20 -4 -21 -5 -24 36 -34 37 -6 -25
right_child=1 5 7 4 34 -7 12 13 20 -11 11 -13 -14 14 15 -17 -18 -19 24 31 26 -23 33 38 25 -27 -28 -29 -30 -31 -32 -33 35 -35 -36 -37 -38 -39 -40
leaf_value=1.821239797436391 -0.57153929081900123 -0.64371343736899933 -0.4470818177170337 -0.07860167678500006 -0.21248982367900027 -0.91686524266900027 -0.25819660266899974 -0.5744862925500005 2.6941402357449991 -2.4377664515326565 -1.6103466298807398 0.73722573289178261 0.23835837593500031 -0.72918640120500067 -0.65664903477000003 -0.12616523088536732 -2.0611895177470276 -0.87825152166499976 -0.71553386474999958 -0.15416668818703344 0.49929739214500019 -0.52794612750380332 -0.22537022651879682 -0.084736332067032558 -0.074081546754999658 -0.50861706945000051 2.011410913474998 -1.3423754694250007 -1.6530920523554948 -1.6528916381870324 -0.21819127256703297 -1.6111772451300643 -1.2645001030287972 -0.65843612285500019 -1.2397295054826976 -0.3100852337090011 -0.22000697161500044 -0.53842708046899979 -0.96621488916203269
leaf_weight=46 563 167 739 1410 240 114 1091 105 225 20 20 26 4154 98 104 23 22 71 40 1644 1632 20 254 326 211 309 16783 239 37 31 561 29 42 90 27 962 1515 392 35
leaf_count=46 563 167 739 1410 240 114 1091 105 225 20 20 26 4154 98 104 23 22 71 40 1644 1632 20 254 326 211 309 16783 239 37 31 561 29 42 90 27 962 1515 392 35
internal_value=0 -0.00516857 -0.00462418 -0.00281435 -0.00224899 -0.0276935 -0.000939665 -0.0086989 0.00388758 -0.0224359 -0.0047738 -0.0330124 0.000864276 -0.0149201 -0.0204663 -0.0356742 -0.0415944 -0.0178725 -0.00681724 -0.00546945 0.00399112 -0.00597351 -0.0146638 -0.0076041 -0.0133934 -0.0106051 0.00414586 0.00071293 0.000276372 -0.0299843 -0.00939672 -0.00238007 -0.00410173 -0.0097798 -0.00686391 -0.00755996 -0.00643971 -0.0107627 -0.00332627
internal_weight=0 15415 15063 10442 9879 352 7705 4621 19002 66 2460 46 5245 1057 591 149 126 238 3564 2973 18936 282 442 466 591 520 18654 1871 262 71 1300 1673 2414 344 2174 1004 2147 632 361
internal_count=34417 15415 15063 10442 9879 352 7705 4621 19002 66 2460 46 5245 1057 591 149 126 238 3564 2973 18936 282 442 466 591 520 18654 1871 262 71 1300 1673 2414 344 2174 1004 2147 632 361
cat_boundaries=0 1 2 3
cat_threshold=1 2 2
shrinkage=0.1


Tree=12
num_leaves=40
num_cat=9
split_feature=3 9 23 23 9 9 10 23 17 9 0 23 13 17 17 17 12 12 4 11 23 5 0 17 24 13 23 11 10 17 17 4 13 3 23 11 23 11 17
split_gain=0.820833 0.170056 0.125439 0.0876984 0.0540896 0.0438582 0.0338039 0.0326102 0.0415706 0.0477597 0.0321803 0.0316305 0.0356604 0.0796982 0.0315346 0.0304977 0.0567215 0.060405 0.0295556 0.0262048 0.0256797 0.0488396 0.0301863 0.195905 0.134373 0.0255103 0.0227463 0.0221448 0.0367469 0.0243408 0.0241076 0.0212573 0.0207275 0.0220749 0.020352 0.0313765 0.0191704 0.0184498 0.0184353
threshold=1.5000000000000002 28.500000000000004 0 1 14.500000000000002 17.500000000000004 1.5000000000000002 2 11.500000000000002 14.500000000000002 99.500000000000014 3 0.99863013698630143 13.500000000000002 1.5000000000000002 9.5000000000000018 5.5000000000000009 9.5000000000000018 1.2500000000000002 1.0000000180025095e-35 4 1.0000000180025095e-35 72.500000000000014 26.500000000000004 5 0.0041095890410958917 6 1.0000000180025095e-35 1.5000000000000002 5.5000000000000009 46.500000000000007 1.7500000000000002 0.072602739726027418 3.5000000000000004 7 1.0000000180025095e-35 8 4.5000000000000009 5.5000000000000009
decision_type=2 10 1 1 8 8 2 1 2 10 10 1 2 2 2 2 2 2 10 2 1 10 8 2 1 2 1 2 2 2 2 10 2 2 1 2 1 2 2
left_child=3 2 11 18 -5 6 7 19 9 -9 -11 -2 14 -14 -13 16 25 -18 -1 -4 21 -3 23 -22 -25 38 -17 29 -29 -16 -31 -21 33 -28 35 -10 -6 -34 -7
right_child=1 20 5 4 36 15 -8 8 34 10 -12 12 13 -15 27 26 17 -19 -20 31 22 -23 -24 24 -26 -27 32 28 -30 30 -32 -33 37 -35 -36 -37 -38 -39 -40
leaf_value=-0.31525952924832978 1.2313626294874993 -1.3669728277884514 0.067800641662900327 -0.74019574488629658 -0.71803907248189669 -2.1939898063793906 -0.005276954110032506 -0.41134362733710078 -0.064493114737100399 -0.3364329868461326 -0.70898377148449976 -3.1529492263793912 -1.1157565549344277 0.66350315960260464 -2.7023125552201561 0.11954908667649917 -1.4500595206170577 -0.13033160610709232 -0.59799304129050057 -0.25247023893515319 3.1370387818604999 0.55276327567650019 2.1799093821274993 -0.72587771977271986 5.9927970176974981 0.11068266229990656 -0.54623486000500032 -0.20144126478693886 0.7370207332934996 0.39489885631296673 -4.2711133530861529 -1.8550705659723246 0.1580509440119009 0.063551675727499909 -0.27131934241250022 -0.72358411544329615 -0.51703766329500034 -0.26011175055810015 -0.28330577856809996
leaf_weight=1612 2092 86 490 569 494 24 736 178 73 36 111 20 20 54 55 2710 25 28 365 425 336 1613 11120 36 26 262 421 1449 874 3943 29 34 767 204 1156 116 1291 349 188
leaf_count=1612 2092 86 490 569 494 24 736 178 73 36 111 20 20 54 55 2710 25 28 365 425 336 1613 11120 36 26 262 421 1449 874 3943 29 34 767 204 1156 116 1291 349 188
internal_value=0 0.00159053 -0.000514058 -0.0131187 -0.0172553 -0.00326981 -0.00606303 -0.00774003 -0.0103758 -0.0204795 -0.0332987 0.00217812 0.00107282 -0.0194003 0.00134237 -0.00138546 -0.00850467 -0.0367502 -0.00800415 -0.00290351 0.00427501 0.000621346 0.00480824 -0.00367214 -0.0510579 -0.00465237 -0.000525366 0.00149288 -0.000963358 0.00290866 0.00321534 -0.00828164 -0.00332447 -0.00790524 -0.0078778 -0.0171984 -0.0144704 -0.000741184 -0.0125455
internal_weight=0 30086 16869 4331 2354 8333 3355 2619 1670 325 147 8536 6444 74 6370 4978 527 53 1977 949 13217 1699 11518 398 62 474 4451 6350 2323 4027 3972 459 1741 625 1345 189 1785 1116 212
internal_count=34417 30086 16869 4331 2354 8333 3355 2619 1670 325 147 8536 6444 74 6370 4978 527 53 1977 949 13217 1699 11518 398 62 474 4451 6350 2323 4027 3972 459 1741 625 1345 189 1785 1116 212
cat_boundaries=0 2 4 5 7 8 9 10 11 12
cat_threshold=2351830112 1 2359068706 1 277941000 524352 1 35758751 2 563153154 1073741956 1375741569
shrinkage=0.1


Tree=13
num_leaves=40
num_cat=14
split_feature=3 26 23 26 23 3 23 0 17 17 12 23 17 0 14 14 4 20 1 17 17 4 26 12 1 23 26 12 14 1 4 14 1 1 28 24 23 0 24
split_gain=0.703206 0.210422 0.0868547 0.0667849 0.0590943 0.0599035 0.0585746 0.0371843 0.101632 0.0357262 0.0344699 0.0412916 0.0354449 0.0567563 0.042338 0.0374607 0.0370361 0.0308325 0.0428509 0.0303765 0.0298324 0.028262 0.0288088 0.0241809 0.0304806 0.0241238 0.0226257 0.0219946 0.0428848 0.0211836 0.0195618 0.0190941 0.0187173 0.0181873 0.0270381 0.0148703 0.0147758 0.0171724 0.0320879
threshold=1.5000000000000002 0 1 2 3 3.5000000000000004 4 43.500000000000007 32.500000000000007 6.5000000000000009 1.5000000000000002 5 12.500000000000002 76.500000000000014 299.50000000000006 354.50000000000006 1.2500000000000002 6 51.53955484524451 1.5000000000000002 9.5000000000000018 1.2500000000000002 7 5.5000000000000009 51.545993554396766 8 9 2.5000000000000004 357.50000000000006 51.508108926227628 1.2500000000000002 40.500000000000007 51.512295492440188 51.480972064929951 10 11 12 91.500000000000014 13
decision_type=2 1 1 1 1 2 1 8 2 2 2 1 2 10 2 2 10 1 2 2 2 10 1 2 2 1 1 2 2 2 10 2 2 2 9 1 1 10 1
left_child=2 4 21 30 5 9 23 8 20 -2 11 -8 13 -12 29 32 -14 -18 -19 -9 -6 -1 -23 26 -25 27 33 -5 -29 -15 -4 -13 -16 34 -3 -26 -36 38 -38
right_child=1 6 3 25 7 -7 10 19 -10 -11 12 31 16 14 15 -17 17 18 -20 -21 -22 22 -24 24 35 -27 -28 28 -30 -31 -32 -33 -34 -35 36 -37 37 -39 -40
leaf_value=-0.2204245895276678 -1.9745908257414513 0.029484133064593722 -1.0025053783394717 -0.33494497856859984 -1.3427768950582395 0.85499349455984808 0.068329130563514445 -2.8376543037414521 -0.40256374277615098 -0.82171898079549666 -0.18447872032677567 -0.33806760794279678 -0.12814139694904655 -2.0703831286438725 -0.67629361079984673 0.20349314874530933 -0.35094163537084316 -0.12177749835874999 -1.6695635093750925 1.8869288839147487 4.2746664140392028 -0.76537941427305012 -0.42564014188345145 -0.21116879614539671 -0.27252714037839781 -0.62819158682137122 -0.7778552384668509 -0.49181322956099938 -1.3752923924040363 -0.36199494956597961 -0.73872260316899985 -0.19710054539229027 -0.69599124583938632 0.1997659709927504 0.071487396530396555 -1.0041808994409849 -0.14370314177540564 -0.34329951956940691 -1.2302755450096061
leaf_weight=1381 22 1531 61 920 20 1754 1602 22 20 1021 456 338 1465 32 28 21 378 27 35 15771 171 54 265 261 26 1081 76 486 39 163 44 661 85 3607 138 27 74 198 56
leaf_count=1381 22 1531 61 920 20 1754 1602 22 20 1021 456 338 1465 32 28 21 378 27 35 15771 171 54 265 261 26 1081 76 486 39 163 44 661 85 3607 138 27 74 198 56
internal_value=0 0.00132819 -0.0122864 -0.0158845 0.00337643 -0.000865025 -0.00208418 0.00411575 -0.00879512 -0.00683394 -0.00450142 -0.00190314 -0.00701405 -0.0126398 -0.0224634 -0.0357012 -0.00464192 -0.012582 -0.0317852 0.00429631 -0.00028144 -0.00652651 -0.0149244 6.08977e-05 -0.00834219 -0.0147956 0.000539386 -0.0116282 -0.0168925 -0.0120689 -0.0398973 -0.00687668 -0.0423725 0.000785046 -0.0016309 -0.0281238 -0.00812483 -0.0116768 -0.0205822
internal_weight=0 30086 4331 2631 18801 2797 11285 16004 211 1043 5291 2601 2690 785 329 134 1905 440 62 15793 191 1700 319 5994 314 2526 5680 1445 525 195 105 999 113 5604 1997 53 466 328 130
internal_count=34417 30086 4331 2631 18801 2797 11285 16004 211 1043 5291 2601 2690 785 329 134 1905 440 62 15793 191 1700 319 5994 314 2526 5680 1445 525 195 105 999 113 5604 1997 53 466 328 130
cat_boundaries=0 1 3 4 5 7 8 9 10 11 12 13 14 15 16
cat_threshold=1 2350680096 1 4 1381065631 2361267298 1 805407512 2 4 547442954 2 3 2 76551168 2
shrinkage=0.1


Tree=14
num_leaves=40
num_cat=6
split_feature=3 26 26 17 4 12 15 26 6 12 15 1 1 17 19 12 1 1 3 1 1 1 4 1 1 17 12 1 17 1 17 17 1 4 22 4 19 1 1
split_gain=0.599769 0.174246 0.0726913 0.0562084 0.0508717 0.0457836 0.0741961 0.051963 0.0359991 0.0354188 0.0430669 0.0345887 0.0961647 0.0339504 0.0335116 0.0432404 0.0536407 0.0611704 0.0329789 0.030939 0.0288535 0.0358373 0.0263351 0.0252276 0.0370923 0.0249994 0.103664 0.190923 0.0242904 0.0220864 0.02114 0.0208414 0.0192072 0.0188129 0.0173986 0.0158365 0.016092 0.0144633 0.014338
threshold=1.5000000000000002 0 1 3.5000000000000004 1.2500000000000002 4.5000000000000009 1.5000000000000002 2 1.0000000180025095e-35 2.5000000000000004 2.5000000000000004 51.547672901772096 51.550552407146164 12.500000000000002 3 1.5000000000000002 51.505449092660449 51.527211018885758 3.5000000000000004 51.503322359224235 51.434272743254105 51.549997897270593 2.2500000000000004 51.548193197160082 51.483114940896883 43.500000000000007 1.5000000000000002 51.491726530790281 19.500000000000004 51.446950190945493 9.5000000000000018 5.5000000000000009 51.52758703005528 1.7500000000000002 4 1.2500000000000002 5 51.522171499530991 51.470067593964252
decision_type=2 1 1 2 10 2 10 1 8 2 10 2 2 2 1 2 2 2 2 2 2 2 10 2 2 2 2 2 2 2 2 2 2 10 1 10 1 2 2
left_child=2 3 4 19 -1 6 8 13 -3 10 -4 -7 -13 14 -8 33 -17 -18 23 -2 -15 35 -23 24 -5 31 27 -27 -10 -12 34 37 -31 -16 38 -22 -37 -20 -11
right_child=1 5 9 18 -6 11 7 -9 28 30 29 12 -14 20 15 16 17 -19 25 -21 21 22 -24 -25 -26 26 -28 -29 -30 32 -32 -33 -34 -35 -36 36 -38 -39 -40
leaf_value=-0.55895986662449992 1.6281636715434047 -1.1072479905086456 -0.18813292327886161 -0.54143196778624947 -0.66485034285209998 -0.216408782273178 -0.11104917887716539 -0.78567988753272044 0.09941757905816502 -1.2377631531636326 -0.71529376521174015 -0.90376280949688637 -0.40429086822961013 -0.3089695676124663 -0.069857344672104915 0.02177128575287526 -0.66443316935211039 -0.43164939537017805 4.6075785090446919 -1.7771317431673062 0.07624287608108915 -0.21842140140996025 -1.8334915054464593 -0.49932682087672475 1.0935147164283749 -0.6718460436537379 3.3432359955232744 1.5832255555232735 0.7359712008839594 -0.27829255107153444 -0.46686910134769699 2.367507874006674 -0.48193999714490166 -1.0309723451224577 -0.29821062390973019 -0.37174510438907266 0.11649916389347581 -2.6207741880896154 -0.77268758387967373
leaf_weight=106 25 34 1306 1324 98 664 621 73 2825 33 192 26 204 453 261 79 130 86 20 33 3317 860 24 1025 4543 20 256 49 715 642 1280 11486 445 35 60 482 396 20 169
leaf_count=106 25 34 1306 1324 98 664 621 73 2825 33 192 26 204 453 261 79 130 86 20 33 3317 860 24 1025 4543 20 256 49 715 642 1280 11486 445 35 60 482 396 20 169
internal_value=0 0.00119229 -0.0113812 0.00305616 -0.0294855 -0.00191292 -0.0013177 -0.00325091 0.00236847 -0.0104172 -0.00809769 -0.00874006 -0.0190655 -0.00294023 -0.00771305 -0.0129633 -0.0215545 -0.0293957 0.00315869 -0.0256679 -0.00188253 -0.0011911 -0.00693952 0.00141642 0.00221642 0.00416987 -0.004379 -0.0360883 0.0027145 -0.012206 -0.0142284 0.00441451 -0.0102844 -0.0044003 -0.0225214 3.387e-05 -0.00371811 -0.0160564 -0.0268316
internal_weight=0 30086 4331 18801 204 11285 10391 6817 3574 4127 2585 894 230 6744 1212 591 295 216 18743 58 5532 5079 884 6892 5867 11851 325 69 3540 1279 1542 11526 1087 296 262 4195 878 40 202
internal_count=34417 30086 4331 18801 204 11285 10391 6817 3574 4127 2585 894 230 6744 1212 591 295 216 18743 58 5532 5079 884 6892 5867 11851 325 69 3540 1279 1542 11526 1087 296 262 4195 878 40 202
cat_boundaries=0 1 2 3 4 5 6
cat_threshold=1 4 2 13 2 16
shrinkage=0.1


Tree=15
num_leaves=40
num_cat=8
split_feature=9 23 23 10 8 13 16 13 16 16 23 16 13 8 5 5 23 9 5 6 22 13 23 13 6 5 1 13 1 1 1 1 16 16 11 23 23 11 9
split_gain=0.278324 0.185428 0.0611855 0.0524139 0.0593563 0.0507105 0.0554508 0.0465281 0.1244 0.0446402 0.0420315 0.0382278 0.0357046 0.0338605 0.031229 0.0278648 0.0368269 0.0324832 0.0264635 0.036769 0.0821564 0.0329565 0.0255443 0.0288646 0.0228254 0.0277434 0.022679 0.0224921 0.0267364 0.0729256 0.0210015 0.02015 0.0182436 0.0264012 0.0182245 0.0180868 0.0173508 0.0169644 0.0169503
threshold=28.500000000000004 0 1 1.5000000000000002 91.500000000000014 0.84520547945205482 1453.5000000000002 0.99863013698630143 2041.5000000000002 1175.5000000000002 2 2729.5000000000005 0.95753424657534258 3350.0000000000005 1.5000000000000002 1.5000000000000002 3 37.500000000000007 1.5000000000000002 2.5000000000000004 4 0.13561643835616441 5 0.075342465753424667 1.5000000000000002 2.5000000000000004 51.522549958609936 0.4808219178082192 51.562265579712708 51.576676726516588 51.483114940896883 51.434272743254105 1786.5000000000002 1764.5000000000002 4.5000000000000009 6 7 1.0000000180025095e-35 14.500000000000002
decision_type=10 1 1 2 8 2 10 2 10 10 1 10 2 10 8 10 1 10 10 10 1 2 1 2 10 10 2 2 2 2 2 2 10 8 2 1 1 2 10
left_child=1 2 26 4 5 10 9 18 -9 -7 27 -8 14 15 22 16 -2 -18 19 21 -21 38 -6 -24 25 -20 -1 28 -3 -30 -27 -23 33 -12 -25 -5 -14 -33 -4
right_child=13 3 7 35 12 6 11 8 -10 -11 32 -13 36 -15 -16 -17 17 -19 24 20 -22 31 23 34 -26 30 -28 -29 29 -31 -32 37 -34 -35 -36 -37 -38 -39 -40
leaf_value=0.88848084650443726 0.88633075164043484 -0.48284309803864328 -0.26692804151280713 -0.59341210809526257 -0.23240519777592683 -0.32616905635019511 -0.19486561572507455 0.034001074444068281 -1.1139868378472693 -0.59798985241689917 -0.3266931699977626 -1.6981932355382618 -0.26495872158076067 -0.99652319145778101 0.020584437068082908 3.2964852081226059 -0.66691830669325336 0.24590195597094608 0.30744989771351783 -0.5962861919394481 -2.376175699050576 -0.37831267954996267 -0.54398062018107429 -0.30599911743360342 1.5782681143040607 -0.10370315567041857 -0.019526194390684995 -0.18235745399516007 -1.5994185688505755 -0.78215459408076038 -1.1450781630217246 0.17115160175631985 -0.10789251154246743 -5.2036462990933927 -0.39389131538146532 0.2388490302200971 0.75261502923290713 -0.098775573358017968 -0.034600032882768521
leaf_weight=2486 4867 120 2773 270 2564 70 171 90 34 157 692 21 326 21 613 6932 773 997 63 126 25 210 527 674 1165 20 1408 41 25 39 20 1953 590 22 219 828 286 1176 1023
leaf_count=2486 4867 120 2773 270 2564 70 171 90 34 157 692 21 326 21 613 6932 773 997 63 126 25 210 527 674 1165 20 1408 41 25 39 20 1953 590 22 219 828 286 1176 1023
internal_value=0 -0.00267461 -0.000252828 -0.00635012 -0.00734348 -0.0120496 -0.0217389 -0.00172997 -0.0202258 -0.032043 -0.00927044 -0.00857328 -0.0055638 0.0031411 -0.00651746 0.00321426 0.00174579 -0.00214734 -0.00144057 -0.00217446 -0.0171258 -0.00183451 -0.00753745 -0.0109663 0.00276043 -0.0108582 0.00303108 -0.0214818 -0.0268945 -0.0425901 -0.0284732 0.000457148 -0.00680072 -0.0102228 -0.00744203 7.53432e-05 0.00158913 0.00110423 -0.00384618
internal_weight=0 20827 12572 8255 7157 1948 419 8678 124 227 1529 192 5209 13590 4597 13569 6637 1770 8554 7286 151 7135 3984 1420 1268 103 3894 225 184 64 40 3339 1304 714 893 1098 612 3129 3796
internal_count=34417 20827 12572 8255 7157 1948 419 8678 124 227 1529 192 5209 13590 4597 13569 6637 1770 8554 7286 151 7135 3984 1420 1268 103 3894 225 184 64 40 3339 1304 714 893 1098 612 3129 3796
cat_boundaries=0 2 4 5 7 8 9 10 11
cat_threshold=2352782440 1 67633248 1 1375731844 747391328 1 2 566296834 1392509697 1128349830
shrinkage=0.1


Tree=16
num_leaves=40
num_cat=2
split_feature=9 17 9 28 13 16 9 17 5 13 5 16 17 16 16 0 17 1 1 4 5 16 1 1 9 6 1 28 6 1 16 13 13 5 13 17 0 16 0
split_gain=0.246802 0.0881757 0.0803075 0.0393944 0.0510002 0.104107 0.0507133 0.098209 0.0387003 0.0386484 0.0536095 0.0684507 0.0487313 0.0946947 0.0385591 0.0369312 0.209339 0.238033 0.0347698 0.0339982 0.0295657 0.0269966 0.0267586 0.0394636 0.0259891 0.0208721 0.0189107 0.0158194 0.037731 0.0155348 0.0142373 0.0159326 0.0166299 0.0138955 0.0243561 0.0138569 0.0167517 0.0152743 0.0134917
threshold=37.500000000000007 11.500000000000002 14.500000000000002 0 0.3191780821917809 1273.5000000000002 12.500000000000002 8.5000000000000018 1.5000000000000002 1.0000000180025095e-35 2.5000000000000004 1552.5000000000002 3.5000000000000004 1786.5000000000002 2016.5000000000002 72.500000000000014 26.500000000000004 51.492721654168442 51.529077330376836 1.2500000000000002 1.5000000000000002 2006.5000000000002 51.550552407146164 51.491726530790281 16.500000000000004 4.5000000000000009 51.545993554396766 1 2.5000000000000004 51.491122042722203 2843.5000000000005 0.012328767123287673 0.71643835616438367 1.0000000180025095e-35 0.46438356164383565 8.5000000000000018 99.500000000000014 2032.5000000000002 73.500000000000014
decision_type=10 2 8 9 2 10 8 2 10 2 10 10 2 10 8 8 2 2 2 10 10 10 2 2 10 10 2 9 8 2 10 2 2 10 2 2 10 10 10
left_child=1 3 14 4 -1 -6 -7 18 19 12 38 -12 13 -5 20 16 -2 -18 -8 22 21 25 23 27 -9 -3 35 28 29 -4 31 -21 -33 34 -16 36 -14 -38 -11
right_child=15 2 8 9 5 6 7 24 -10 10 11 -13 26 -15 33 -17 17 -19 -20 30 -22 -23 -24 -25 -26 -27 -28 -29 -30 -31 -32 32 -34 -35 -36 -37 37 -39 -40
leaf_value=-0.28932206567644664 2.1767106986360942 -0.28612532732032819 -0.29124644864143578 -1.4394767119655181 -0.030735010402946728 -0.28452967526552014 -2.1385581291455185 -0.48242194754296119 1.1739390296558854 0.095806854369480735 0.16287587773067502 -0.70198784476247078 -0.36570029711813279 0.29190199898670105 0.30267560198168586 1.8017112424763937 -10.62117104322634 4.8002799783533447 -2.6054312716010002 -0.39170675037133051 0.369816412008656 -1.4902004980167556 -0.24774963871009278 0.24407182127201282 -0.21195240766296097 -0.8721443406173357 -0.45687907820472023 -0.062531237700863329 -3.7278927318985811 -3.4065490330242088 0.24640743015313121 -0.055053017564380018 -0.42262179644032116 -0.011642254088977922 -4.7605160423650776 -0.13395052220325709 -0.24802722974525154 -5.0724359151993585 -0.24939542954013805
leaf_weight=566 313 2937 834 20 187 74 27 110 2979 1013 30 20 338 27 37 9949 23 31 20 415 405 25 1686 5116 71 29 375 2173 24 28 132 647 323 1660 21 813 20 20 899
leaf_count=566 313 2937 834 20 187 74 27 110 2979 1013 30 20 338 27 37 9949 23 31 20 415 405 25 1686 5116 71 29 375 2173 24 28 132 647 323 1660 21 813 20 20 899
internal_value=0 -0.00221695 -0.00128267 -0.00613476 -0.0114818 -0.0189779 -0.0301603 -0.0373012 -6.9666e-05 -0.00448466 -0.00150235 -0.0309363 -0.00810827 -0.036975 -0.00468127 0.00362577 -0.00611033 -0.0582471 -0.0746221 -0.000910166 -0.0066297 -0.0077124 -0.000229999 0.000519333 -0.0242106 -0.00735851 -0.00701278 -0.00231745 -0.00582782 -0.00454775 -0.00530102 -0.00624704 -0.00395815 -0.000813691 -0.0148249 -0.0049884 -0.00991745 -0.0272669 -0.000575683
internal_weight=0 24101 19471 4630 1055 489 302 228 14357 3575 1962 50 1613 47 5114 10316 367 54 47 11378 3396 2991 9861 8175 181 2966 1566 3059 886 862 1517 1385 970 1718 58 1191 378 40 1912
internal_count=34417 24101 19471 4630 1055 489 302 228 14357 3575 1962 50 1613 47 5114 10316 367 54 47 11378 3396 2991 9861 8175 181 2966 1566 3059 886 862 1517 1385 970 1718 58 1191 378 40 1912
cat_boundaries=0 1 2
cat_threshold=8 8
shrinkage=0.1


Tree=17
num_leaves=40
num_cat=9
split_feature=3 23 23 3 17 8 23 26 26 8 14 26 14 16 0 17 17 14 16 0 16 26 8 0 17 14 14 0 17 23 17 16 14 16 4 0 14 26 0
split_gain=0.488885 0.134283 0.0784321 0.0721377 0.0539063 0.212128 0.047713 0.0437626 0.0365499 0.0342724 0.0326178 0.0279216 0.035151 0.0802993 0.029859 0.095831 0.0274734 0.0309893 0.0451831 0.0332997 0.0279883 0.0299263 0.0230555 0.0204045 0.0182321 0.0182672 0.0181108 0.0166848 0.0991946 0.0165901 0.0224513 0.0556998 0.0137503 0.0135289 0.0128187 0.0177676 0.0136029 0.0156173 0.0256524
threshold=1.5000000000000002 0 1 4.5000000000000009 3.5000000000000004 101.00000000000001 2 3 4 2276.0000000000005 48.500000000000007 5 364.50000000000006 2041.5000000000002 42.500000000000007 29.500000000000004 12.500000000000002 307.50000000000006 1273.5000000000002 76.500000000000014 2460.5000000000005 6 152.00000000000003 31.500000000000004 42.500000000000007 87.500000000000014 86.500000000000014 72.500000000000014 26.500000000000004 7 10.500000000000002 2444.5000000000005 40.500000000000007 2674.5000000000005 1.2500000000000002 96.500000000000014 56.500000000000007 8 95.500000000000014
decision_type=2 1 1 2 2 8 1 1 1 10 2 1 2 10 8 2 2 2 10 10 10 1 8 8 2 2 2 8 2 1 2 10 2 10 10 10 2 1 10
left_child=2 11 34 4 5 -3 24 10 -5 16 -4 14 22 -14 15 -2 17 23 -19 -20 21 -21 -13 -8 25 26 -6 28 -16 -9 31 32 -31 -32 36 -36 -1 38 -38
right_child=1 3 7 8 6 -7 9 29 -10 -11 -12 12 13 -15 27 -17 -18 18 19 20 -22 -23 -24 -25 -26 -27 -28 -29 -30 30 33 -33 -34 -35 35 -37 37 -39 -40
leaf_value=-0.275953726270248 4.090459624246499 -2.0171070698988807 -0.89738028812577508 -0.91943832657293967 -0.29822434748752225 0.29338420119988701 -1.0340670302575601 -0.51091250433804269 1.9952091019981937 -1.0770419965596423 -0.31164143708442577 -0.09902062275707238 2.2793537936100137 -0.63178906028622372 2.399082736633436 0.43734581937721145 0.041245357585861342 0.50861798918890744 -0.31650481243635298 -0.45199967242091366 0.77524402782540003 0.39026314827787023 0.41416575693323954 -0.07651431373334816 -1.34118044821508 -0.10695595608783322 -5.1157373069667003 2.4355839872667575 -4.7539578697409501 -0.44150043628316493 -0.31253207726030258 -0.97764861110852852 -0.24211558572319092 0.1714590568723196 -0.58669027765509796 -0.10357712942264925 0.79756980530707011 0.00021966706069065367 -6.2973872165853759
leaf_weight=772 108 21 43 26 1680 75 34 844 3230 20 55 1376 36 20 195 21 9471 112 94 147 22 22 1655 1988 38 1463 26 8181 25 144 1058 39 140 93 202 143 28 748 22
leaf_count=772 108 21 43 26 1680 75 34 844 3230 20 55 1376 36 20 195 21 9471 112 94 147 22 22 1655 1988 38 1463 26 8181 25 144 1058 39 140 93 202 143 28 748 22
internal_value=0 0.00105871 -0.0102932 -0.000617508 -0.00153245 -0.0240088 -0.00137394 -0.0140731 0.00364709 -0.000447908 -0.0341938 0.00371918 0.00114059 -0.0216988 0.00465429 0.0192383 -0.000362804 -0.00336321 -0.0113285 -0.017843 -0.0251139 -0.0292906 0.00163253 -0.00175125 -0.00478464 -0.00449073 -0.00670625 0.00440774 -0.00404628 -0.0131397 -0.0106653 -0.018086 -0.01221 -0.00853693 -0.00537495 -0.0108661 -0.00414119 -0.00121968 -0.0167426
internal_weight=0 30086 4331 18469 15213 96 15117 2416 3256 11910 98 11617 3087 56 8530 129 11890 2419 397 285 191 169 3031 2022 3207 3169 1706 8401 220 2318 1474 323 284 1151 1915 345 1570 798 50
internal_count=34417 30086 4331 18469 15213 96 15117 2416 3256 11910 98 11617 3087 56 8530 129 11890 2419 397 285 191 169 3031 2022 3207 3169 1706 8401 220 2318 1474 323 284 1151 1915 345 1570 798 50
cat_boundaries=0 2 4 5 6 7 8 9 10 11
cat_threshold=2215379040 1 2352777248 1 1380000149 4 4 1 2 1396704917 1
shrinkage=0.1


Tree=18
num_leaves=40
num_cat=3
split_feature=26 26 2 17 5 17 8 8 5 2 8 11 11 10 2 2 8 15 2 1 4 1 2 2 1 17 2 15 2 15 19 17 11 15 17 15 1 1 1
split_gain=0.286704 0.0842422 0.073225 0.0533143 0.071137 0.0477461 0.0848065 0.0451983 0.0450539 0.0544499 0.0408923 0.0398107 0.0480232 0.0382114 0.039975 0.0357573 0.0565444 0.031793 0.0344423 0.0313143 0.0299851 0.0295498 0.0537944 0.0387669 0.0284047 0.0270985 0.0285229 0.0444715 0.0263828 0.0262368 0.025963 0.0988671 0.0245373 0.0227428 0.0226417 0.0225911 0.0225102 0.0307025 0.0247138
threshold=0 1 0.047883311450971668 11.500000000000002 2.5000000000000004 3.5000000000000004 350.50000000000006 75.500000000000014 1.5000000000000002 -0.066266779411335366 106.50000000000001 19.500000000000004 1.0000000180025095e-35 1.5000000000000002 -0.064710139904486305 -0.02568500365858269 76.500000000000014 4.5000000000000009 0.059348176624076064 51.548769516684281 1.7500000000000002 51.477096747677571 -0.19415410274653119 -0.24459403158390078 51.445177696587088 7.5000000000000009 -0.060824214309078729 19.500000000000004 -0.21669873495146477 32.500000000000007 2 26.500000000000004 19.500000000000004 16.500000000000004 5.5000000000000009 36.500000000000007 51.547672901772096 51.483114940896883 51.482483578921155
decision_type=1 1 2 2 10 2 8 8 10 2 8 2 2 2 2 2 10 10 2 2 10 2 2 2 2 2 2 10 2 10 1 2 2 10 2 8 2 2 2
left_child=5 2 3 4 10 6 -1 35 9 28 13 12 -5 14 21 16 33 18 -4 24 -9 22 23 -2 -14 -11 27 32 29 -7 31 -10 -27 -16 -32 -3 37 38 -30
right_child=1 7 17 11 -6 8 -8 20 30 25 -12 -13 19 -15 15 -17 -18 -19 -20 -21 -22 -23 -24 -25 -26 26 -28 -29 36 -31 34 -33 -34 -35 -36 -37 -38 -39 -40
leaf_value=-1.0938183337790781 -0.56674220088712424 -0.75234960344410529 -0.98655844739247844 -0.047734825485549949 -0.56861015425760131 -0.42216424656967749 1.1896803628194306 -0.19887996345423353 3.8428588162369168 -0.93066032723180414 -0.13038027365627655 0.25357307597922019 -0.39260077978525487 0.42087385157912255 -0.20485728335346778 -0.17191953915734218 -1.1700659237134825 -0.48814537759446708 -0.17984576227809371 -0.35853946390635588 -0.45645455340907515 -0.22629942690672281 -0.23560608806001471 -0.8798837499976756 -0.13088780998774893 -0.22008995615703952 -0.3340980635223389 -4.6587936722106065 -0.15386404843910101 -3.5546243689085424 -2.3397594214081607 0.39361123743949028 -8.6310355230476627 -0.26077140874382254 2.4375097735079865 -0.43347954984139891 -0.36103437704718289 1.4196311266441271 -6.6177130297232187
leaf_weight=20 20 87 53 6441 35 822 46 166 105 20 2170 1481 414 107 83 81 24 241 414 613 70 469 87 22 2229 141 1464 33 1132 39 39 21 20 79 9083 29 828 5167 22
leaf_count=20 20 87 53 6441 35 822 46 166 105 20 2170 1481 414 107 83 81 24 241 414 613 70 469 87 22 2229 141 1464 33 1132 39 39 21 20 79 9083 29 828 5167 22
internal_value=0 -0.0035856 -0.00322096 -0.00272587 -0.00633479 0.00221675 -0.0228118 -0.0186698 0.00231598 0.000807563 -0.00574977 -0.0016954 -0.00243312 -0.0111113 -0.0133048 -0.0233272 -0.0306594 -0.0130812 -0.00798219 -0.00555693 -0.00998851 -0.00851978 -0.0213725 -0.0468977 -0.0040344 -0.00435578 -0.00379251 -0.0148801 0.0018933 -0.00330918 0.00389358 0.017226 -0.00678631 -0.0212438 0.00366788 -0.0341372 0.00252362 0.00316569 -0.00148742
internal_weight=0 15415 15063 14355 3177 19002 66 352 18936 9688 3142 11178 9697 972 865 267 186 708 467 3256 236 598 129 42 2643 1678 1658 194 8010 861 9248 126 161 162 9122 116 7149 6321 1154
internal_count=34417 15415 15063 14355 3177 19002 66 352 18936 9688 3142 11178 9697 972 865 267 186 708 467 3256 236 598 129 42 2643 1678 1658 194 8010 861 9248 126 161 162 9122 116 7149 6321 1154
cat_boundaries=0 1 2 3
cat_threshold=1 2 2
shrinkage=0.1


Tree=19
num_leaves=40
num_cat=7
split_feature=23 5 25 23 17 17 15 23 8 15 20 23 8 9 2 14 9 14 14 17 10 14 14 17 6 17 9 14 14 6 5 17 14 15 8 15 9 23 2
split_gain=0.191691 0.139176 0.0599489 0.0660822 0.0432643 0.0381098 0.037683 0.0496681 0.0595875 0.0506543 0.0431177 0.0340756 0.0331634 0.0315872 0.0287351 0.0257694 0.0257081 0.0277027 0.0774356 0.025444 0.0407828 0.0654937 0.0241989 0.0314999 0.021001 0.021454 0.0205803 0.0201428 0.0192168 0.0189006 0.0346145 0.0186736 0.0799406 0.029976 0.071789 0.019895 0.0284862 0.0177097 0.0169142
threshold=0 1.5000000000000002 1 2 42.500000000000007 3.5000000000000004 8.5000000000000018 3 77.500000000000014 16.500000000000004 4 5 1975.0000000000002 8.5000000000000018 -0.058154812307572822 1.5000000000000002 34.500000000000007 47.500000000000007 3.5000000000000004 43.500000000000007 3.5000000000000004 154.50000000000003 80.500000000000014 5.5000000000000009 2.5000000000000004 16.500000000000004 6.5000000000000009 25.500000000000004 125.50000000000001 1.5000000000000002 3.5000000000000004 10.500000000000002 364.50000000000006 10.500000000000002 1.0000000180025095e-35 82.500000000000014 7.5000000000000009 6 0.047883311450971668
decision_type=1 10 9 1 2 2 10 1 8 10 1 1 10 8 2 2 10 2 2 2 2 2 2 2 8 2 8 2 2 10 10 2 2 10 8 10 8 1 2
left_child=19 2 3 22 27 -3 12 24 9 -9 13 -10 15 -11 -12 37 17 18 -15 31 -21 -22 23 -2 -8 -26 -24 -5 -19 30 -7 32 33 -1 -35 -33 -37 -4 -29
right_child=1 5 6 4 -6 29 7 8 11 10 14 -13 -14 16 -16 -17 -18 28 -20 20 21 -23 26 -25 25 -27 -28 38 -30 -31 -32 35 -34 34 -36 36 -38 -39 -40
leaf_value=0.21177595463404303 -1.3109960085088934 -0.98443650040117037 -0.43523954276497784 -0.37440597499794209 -1.1712084570029364 -0.10595478401981638 -0.043044917643146621 -0.20205995950256722 -0.0068461568206473096 -0.40898887577744925 0.2876434529897523 -0.50514635188504753 -0.96456431435512313 -0.68274091225843425 -1.4059228978668976 0.019579016900938485 0.14355045627233096 -0.33746625087784637 -6.2775451277534629 2.0358566708388763 1.7617833748335727 0.35425011369554127 -0.26903077271653369 -0.2228453274878632 -1.6136097758631704 -0.4414534966449864 0.058323442854537791 -0.25314584520128491 -0.38997855605314946 0.9854215206610264 -0.85831057957545365 0.64215949731983535 -0.51174913883184125 -2.1057834792673447 0.11236736882696263 -4.269788893304308 -0.14500126793781334 -0.13155876330636254 -0.51826574934979597
leaf_weight=1129 22 20 273 547 20 252 1616 237 687 57 66 370 22 22 32 4957 20 31 23 185 30 22 202 1419 22 38 1105 1119 160 5598 24 11025 26 38 100 20 136 2527 218
leaf_count=1129 22 20 273 547 20 252 1616 237 687 57 66 370 22 22 32 4957 20 31 23 185 30 22 202 1419 22 38 1105 1119 160 5598 24 11025 26 38 100 20 136 2527 218
internal_value=0 -0.00224987 -0.00379624 -0.00680814 -0.0113275 0.00189421 -0.00252741 -0.00531223 -0.00907559 -0.0166118 -0.0232097 -0.00442817 -0.00131502 -0.0287976 -0.00434884 -0.00118094 -0.0334079 -0.0362114 -0.0587834 0.00263694 0.0127012 0.0349682 -0.00361761 -0.00644216 -0.00139055 -0.0183581 -0.000505669 -0.0107219 -0.0282335 0.00207236 -0.0058698 0.00243781 -0.00115265 0.000166341 -0.0132234 0.00285368 -0.0080372 -0.00360021 -0.00851544
internal_weight=0 21706 15812 4652 1904 5894 11160 3381 1705 648 411 1057 7779 313 98 7757 256 236 45 12711 237 52 2748 1441 1676 60 1307 1884 191 5874 276 12474 1293 1267 138 11181 156 2800 1337
internal_count=34417 21706 15812 4652 1904 5894 11160 3381 1705 648 411 1057 7779 313 98 7757 256 236 45 12711 237 52 2748 1441 1676 60 1307 1884 191 5874 276 12474 1293 1267 138 11181 156 2800 1337
cat_boundaries=0 2 4 5 6 7 8 9
cat_threshold=2215379040 1 136847424 64 681744670 422652936 2 536891392 1073767056
shrinkage=0.1


Tree=20
num_leaves=40
num_cat=8
split_feature=3 23 9 23 11 10 23 15 12 9 15 2 12 23 23 15 9 22 6 1 2 28 9 3 1 9 11 15 9 9 15 11 2 23 2 15 11 15 9
split_gain=0.386511 0.0908716 0.0576165 0.0569162 0.0534335 0.0873269 0.0482952 0.040975 0.0487098 0.0360505 0.0314098 0.0302852 0.0374107 0.0286841 0.0281972 0.0353247 0.0498748 0.0517163 0.0281033 0.0280494 0.0498909 0.0267141 0.0263637 0.0491006 0.036407 0.0233298 0.0216814 0.0213918 0.0331296 0.0194007 0.0253522 0.0252471 0.0209385 0.0202279 0.0256339 0.019398 0.0174081 0.0169256 0.0168183
threshold=1.5000000000000002 0 43.500000000000007 1 1.0000000180025095e-35 1.5000000000000002 2 10.500000000000002 3.5000000000000004 1.0000000180025095e-35 14.500000000000002 -0.20231139408257037 1.5000000000000002 3 4 19.500000000000004 17.500000000000004 5 1.0000000180025095e-35 51.533502925236746 -0.082577569042419793 6 32.500000000000007 3.5000000000000004 51.535493055211099 6.5000000000000009 12.500000000000002 82.500000000000014 6.5000000000000009 29.500000000000004 1.5000000000000002 14.500000000000002 0.047883311450971668 7 -0.04152640225842031 52.500000000000007 14.500000000000002 1.5000000000000002 9.5000000000000018
decision_type=2 1 10 1 2 2 1 10 2 8 10 2 2 1 1 10 8 1 8 2 2 9 10 2 2 10 2 10 10 8 10 2 2 1 2 10 2 10 10
left_child=3 19 4 -1 14 6 10 8 13 37 -6 -12 -13 -5 15 -3 17 38 -4 27 -21 22 24 -24 -8 -26 -7 -2 -29 31 -31 32 33 34 -15 36 -9 -10 -17
right_child=1 2 18 7 5 26 21 35 9 -11 11 12 -14 29 -16 16 -18 -19 -20 20 -22 -23 23 -25 25 -27 -28 28 -30 30 -32 -33 -34 -35 -36 -37 -38 -39 -40
leaf_value=-0.16313712234837965 1.2825038574502188 -0.066082057131675503 -0.86810788291961094 -0.031498729198163038 -0.36989168191286126 -0.32314035116499157 -0.19247458773832699 -0.55638699036554662 -0.79385327668800187 -0.38953119312322004 -0.52390190265850201 -0.17852640734325931 -1.0540876113026427 -0.50321337527857468 0.11599270792841594 -0.25345058844802504 0.052044098310165057 0.39287608717893152 1.1273365883601145 0.16473435571532349 -0.46057422494865713 -0.10223438102511438 -0.82382656541512633 -3.0526253927172844 -1.367154086788068 -0.43376860069323514 0.45580860482608332 -3.8428100039738768 0.26822229779423451 -0.16554758377076162 -0.35373655062368742 -0.050925342668625723 -0.78709051703612587 -0.28589630178336628 -0.26364360592916614 -0.24212769544488033 -0.22626799810452383 -0.3408969502588004 -0.3417247086991253
leaf_weight=1218 7355 2469 26 567 522 1068 749 390 31 638 130 40 28 61 6405 49 241 47 4471 2599 24 1816 56 29 45 106 1541 24 95 527 246 133 36 237 43 95 85 24 151
leaf_count=1218 7355 2469 26 567 522 1068 749 390 31 638 130 40 28 61 6405 49 241 47 4471 2599 24 1816 56 29 45 106 1541 24 95 527 246 133 36 237 43 95 85 24 151
internal_value=0 0.000781383 -0.00045449 -0.00931221 -0.00136948 -0.00366201 -0.00690385 -0.0115675 -0.00981581 -0.0169381 -0.0141408 -0.0248912 -0.0410126 -0.00707112 0.000133908 -0.00241068 -0.0101025 -0.0197936 0.00269267 0.00322333 0.000410901 -0.00493203 -0.00909799 -0.0251992 -0.00741709 -0.0210968 0.000722698 0.00421279 -0.00861173 -0.00964011 -0.00642056 -0.014488 -0.0185779 -0.0152775 -0.0261214 -0.0192782 -0.0218598 -0.0400161 -0.0265628
internal_weight=0 30086 19989 4331 15492 6130 3521 3113 2543 693 720 198 68 1850 9362 2957 488 247 4497 10097 2623 2801 985 85 900 151 2609 7474 119 1283 773 510 377 341 104 570 475 55 200
internal_count=34417 30086 19989 4331 15492 6130 3521 3113 2543 693 720 198 68 1850 9362 2957 488 247 4497 10097 2623 2801 985 85 900 151 2609 7474 119 1283 773 510 377 341 104 570 475 55 200
cat_boundaries=0 2 4 5 6 7 8 9 10
cat_threshold=67895392 1 67930144 1 1073778830 2285916162 1912693013 2 8 1610743824
shrinkage=0.1


Tree=21
num_leaves=40
num_cat=13
split_feature=26 12 26 5 1 23 17 25 23 23 23 16 8 5 16 11 23 19 12 13 11 13 23 1 5 5 19 17 23 13 17 11 17 13 13 23 1 1 1
split_gain=0.200409 0.115652 0.0847645 0.0727777 0.0568887 0.056547 0.115046 0.0536737 0.0505353 0.0390945 0.0373055 0.0353471 0.0441914 0.0373933 0.0778277 0.0365919 0.035654 0.0498733 0.0475039 0.0356808 0.16379 0.025295 0.0250001 0.0213676 0.0209693 0.020556 0.0338228 0.0846184 0.0223229 0.0190661 0.0166125 0.0161476 0.0160144 0.0190923 0.0158708 0.02029 0.0157991 0.0154248 0.0157556
threshold=0 4.5000000000000009 1 2.5000000000000004 51.528289853737498 2 4.5000000000000009 3 4 5 6 2096.5000000000005 122.50000000000001 1.0000000180025095e-35 2758.5000000000005 19.500000000000004 7 8 1.5000000000000002 0.0041095890410958917 7.5000000000000009 0.98767123287671243 9 51.528699051910195 1.5000000000000002 1.5000000000000002 10 23.500000000000004 11 0.034246575342465758 42.500000000000007 26.500000000000004 5.5000000000000009 0.278082191780822 0.16849315068493154 12 51.549326376853138 51.503322359224235 51.519665562618563
decision_type=1 2 1 10 2 1 2 9 1 1 1 10 8 10 10 2 1 1 2 2 2 2 1 2 10 10 1 2 1 2 2 2 2 2 2 1 2 2 2
left_child=5 2 7 10 -5 25 -7 8 30 -4 31 12 15 14 -13 16 -10 21 37 20 -20 -18 -21 -24 -8 28 27 -27 -1 -14 34 -3 33 -28 35 -2 -12 -19 -39
right_child=1 3 9 4 -6 6 24 -9 11 -11 36 13 29 -15 -16 -17 17 18 19 22 -22 -23 23 -25 -26 26 32 -29 -30 -31 -32 -33 -34 -35 -36 -37 -38 38 -40
leaf_value=-0.10329118230881279 -0.42822773102623057 -0.4534785749215523 -0.45853064132578397 -0.53365085358319753 -0.41451680245379141 -0.87938464464788579 -0.57603434999085434 0.71139420196019287 -0.035516992479519165 -0.29167885050253767 -0.12538619785413305 0.4686192043397327 -0.10302310515083449 0.11601317868616477 -0.78129709462764974 0.27162698674066094 -0.11300077526707142 -0.43922730028894819 -0.16856658388083084 -0.32021232429480267 -1.3174143132925096 -1.524044520309549 -0.36008961487852248 -0.11176295091454805 0.42041034333494026 4.6058199636423964 4.8917881425383296 0.19057471658096525 1.0078942875632677 0.060644007356951947 -0.94867885017237841 -0.71446794901920174 2.7106158816984962 -1.9116785669121428 -0.13762991419332024 -0.18368126594016979 -0.45319035990410872 0.41207671059155121 -0.28447216701622935
leaf_weight=3321 229 587 110 23 20 22 1926 836 636 217 868 70 1600 3144 31 448 753 178 46 111 20 20 263 62 2078 82 31 22 4467 2426 39 23 7033 20 1534 625 228 93 175
leaf_count=3321 229 587 110 23 20 22 1926 836 636 217 868 70 1600 3144 31 448 753 178 46 111 20 20 263 62 2078 82 31 22 4467 2426 39 23 7033 20 1534 625 228 93 175
internal_value=0 -0.00315761 -0.00217344 -0.0107914 -0.0475165 0.00169357 -0.00162921 -0.00177633 -0.00229647 -0.0178393 -0.00959424 -0.00130307 -0.00259406 0.00141018 -0.0166384 -0.00563367 -0.00720369 -0.00953143 -0.0143691 -0.0211238 -0.0419402 -0.00338584 -0.017103 -0.021173 -0.00115304 0.00258669 0.00380729 0.0202693 0.00146 -0.00046759 -0.0063763 -0.0158014 0.00350387 -0.012691 -0.0059993 -0.00944485 -0.00583229 -0.00678481 -0.0018394
internal_weight=0 15415 13666 1749 43 19002 4026 13339 12503 327 1706 10076 6831 3245 101 2805 2357 1721 948 502 66 773 436 325 4004 14976 7188 104 7788 4026 2427 610 7084 51 2388 854 1096 446 268
internal_count=34417 15415 13666 1749 43 19002 4026 13339 12503 327 1706 10076 6831 3245 101 2805 2357 1721 948 502 66 773 436 325 4004 14976 7188 104 7788 4026 2427 610 7084 51 2388 854 1096 446 268
cat_boundaries=0 1 2 4 6 7 9 10 11 12 14 15 16 17
cat_threshold=1 2 2779651168 1 673198146 64 1392755605 557842440 1 3376428042 137363490 13 2151940104 1 2 2703367168 33587857
shrinkage=0.1


Tree=22
num_leaves=40
num_cat=9
split_feature=3 23 17 11 23 26 13 3 26 11 11 23 4 0 17 5 17 17 13 17 23 0 13 13 13 23 6 13 23 13 13 23 17 17 13 13 11 11 13
split_gain=0.286395 0.0697489 0.0459494 0.0664334 0.0429598 0.0416978 0.0425441 0.0399433 0.0420647 0.0339242 0.049688 0.0310382 0.0312532 0.030723 0.101865 0.0305172 0.0283835 0.0203276 0.0302054 0.0308238 0.0182965 0.0259689 0.0185423 0.0171621 0.0290759 0.0227846 0.023366 0.0272392 0.0188158 0.0167384 0.0253536 0.028947 0.0236415 0.0401302 0.0179936 0.0148671 0.0145112 0.0143279 0.014953
threshold=1.5000000000000002 0 3.5000000000000004 8.5000000000000018 1 2 0.13287671232876716 5.5000000000000009 3 1.0000000180025095e-35 14.500000000000002 4 2.2500000000000004 42.500000000000007 29.500000000000004 3.5000000000000004 1.5000000000000002 12.500000000000002 0.99863013698630143 10.500000000000002 5 51.000000000000007 0.10000000000000002 0.34931506849315075 0.3438356164383562 6 1.0000000180025095e-35 0.061643835616438367 7 0.49452054794520556 0.4808219178082192 8 9.5000000000000018 7.5000000000000009 0.96301369863013708 0.99863013698630143 21.500000000000004 19.500000000000004 0.99589041095890429
decision_type=2 1 2 2 1 1 2 2 1 2 2 1 10 8 2 8 2 2 2 2 1 8 2 2 2 1 10 2 1 2 2 1 2 2 2 2 2 2 2
left_child=4 13 3 16 35 6 -6 9 -9 15 11 -11 -13 14 -2 17 -3 18 20 -20 21 -4 -22 24 25 -19 27 -27 -25 30 31 -7 33 -31 -34 37 -33 38 -1
right_child=1 2 7 -5 5 29 -8 8 -10 10 -12 12 -14 -15 -16 -17 -18 23 19 -21 22 -23 -24 28 -26 26 -28 -29 -30 32 -32 36 34 -35 -36 -37 -38 -39 -40
leaf_value=-0.22035115390329951 2.0671027152160861 1.2556639080666345 -0.82261487225466878 -1.0379315382262417 -0.65532310579494824 -0.18746931745386883 -0.18955206908310096 -0.93632541370304634 2.603712623092524 -0.14361010520704412 -0.0054148591095806616 -0.31076960610733662 -0.85381096515514054 0.84276284260433276 0.17151724492286871 -0.7426271121653707 -0.7914461801830972 -0.30333995022415722 -0.37306512220841226 1.409881692084261 -0.12140599034894209 -0.095545736549860649 0.41079691053695627 -0.03098540265642882 -3.1614342289743336 -0.70316738516488475 0.14520621726306474 0.35608396851767454 0.72782654263534718 -0.23210937380003324 0.28475734885940407 -0.45464042803150378 -0.41757899376472385 -0.64302115411728156 -0.13691131315179206 0.7279164883314565 0.03218839984948154 0.13284560941838067 -5.9583032738447237
leaf_weight=1725 123 50 30 20 43 806 55 25 2772 1734 4238 1621 31 8103 21 34 38 505 35 22 1211 700 704 1016 28 20 5182 26 1797 36 104 645 330 43 224 55 37 198 30
leaf_count=1725 123 50 30 20 43 806 55 25 2772 1734 4238 1621 31 8103 21 34 38 505 35 22 1211 700 704 1016 28 20 5182 26 1797 36 104 645 330 43 224 55 37 198 30
internal_value=0 0.000649921 -0.000286555 -0.0199667 -0.00803864 -0.0109648 -0.0304316 -0.000179741 0.0033408 -0.000701296 -0.00233016 -0.00518017 -0.00825702 0.00312372 0.0171382 0.000397798 -0.00545799 0.000499923 -0.00188727 -0.0228624 -0.00135085 -0.00553493 0.00029183 0.00125354 0.000263268 0.000445241 0.00107136 -0.0192511 0.0032735 -0.0100241 -0.0081986 -0.0092561 -0.0144163 -0.0299845 -0.0117041 -0.00453907 -0.0139969 -0.00503518 -0.00594286
internal_weight=0 30086 21839 108 4331 2323 98 21731 2797 18934 7624 3386 1652 8247 144 11310 88 11276 2702 57 2645 730 1915 8574 5761 5733 5228 46 2813 2225 1592 1488 633 79 554 2008 682 1953 1755
internal_count=34417 30086 21839 108 4331 2323 98 21731 2797 18934 7624 3386 1652 8247 144 11310 88 11276 2702 57 2645 730 1915 8574 5761 5733 5228 46 2813 2225 1592 1488 633 79 554 2008 682 1953 1755
cat_boundaries=0 2 4 5 6 7 8 9 10 11
cat_threshold=67633248 1 2350680354 1 4 4 3090497808 536993814 303121297 868287516 555765768
shrinkage=0.1


Tree=23
num_leaves=40
num_cat=7
split_feature=9 2 8 19 17 17 12 13 12 17 16 8 2 13 17 9 2 16 20 22 2 13 16 16 25 2 19 25 2 2 13 17 8 13 9 13 25 9 9
split_gain=0.130806 0.0560116 0.0319244 0.0319348 0.104887 0.0297116 0.0397129 0.0663699 0.0278259 0.0420346 0.0708035 0.0332804 0.0503149 0.0630185 0.0395748 0.0630867 0.0220314 0.0217855 0.0298806 0.0603172 0.0917373 0.0275794 0.0334227 0.036499 0.019861 0.0261707 0.0185144 0.0218038 0.018178 0.0171066 0.0155306 0.0149838 0.0147431 0.0140922 0.0134225 0.0120333 0.0115591 0.0114266 0.011253
threshold=38.500000000000007 -0.061931961283154764 3023.0000000000005 0 25.500000000000004 12.500000000000002 6.5000000000000009 0.99863013698630143 5.5000000000000009 9.5000000000000018 2399.5000000000005 91.500000000000014 -0.060824214309078729 0.21506849315068496 8.5000000000000018 14.500000000000002 -0.21527699955933441 2016.5000000000002 1 2 -0.02568500365858269 0.90000000000000002 1453.5000000000002 1238.5000000000002 3 -0.10283776702063029 4 5 0.032054782033475483 -0.0377302832166952 0.072602739726027418 43.500000000000007 315.00000000000006 0.99315068493150693 8.5000000000000018 0.10821917808219179 6 35.500000000000007 18.500000000000004
decision_type=10 2 10 1 2 2 2 2 2 2 10 8 2 2 2 10 2 8 1 1 2 2 10 10 9 2 1 9 2 2 2 2 8 2 8 2 9 10 8
left_child=1 5 3 4 -2 6 24 -8 11 10 -10 12 13 -3 15 -14 26 18 21 -20 -21 -16 23 -23 25 -1 27 -7 30 -25 -13 -29 -5 -30 -32 -28 -18 -26 -38
right_child=2 8 -4 32 -6 16 7 -9 9 -11 -12 28 14 -15 17 -17 36 -19 19 20 -22 22 -24 29 37 -27 35 31 33 -31 34 -33 -34 -35 -36 -37 38 -39 -40
leaf_value=-0.21904148394618375 2.7019882656878211 -3.5351788248397122 -0.6328506466483963 0.58302646576803174 0.15436552043058183 0.35910024516075584 -0.36909555778585745 -0.33575860998757107 -0.3832568495365859 -0.32509992550463029 -0.66836440094883365 -0.10952699713063369 -0.013982616506670454 0.28753149126520866 -0.094272635939140065 -0.71230156216478746 0.78642041373955751 0.016850886437977053 -0.48281381379260185 -1.0793447325075958 0.12215402134392157 -0.28077027257180875 0.43400839141084618 -0.15127479268637531 -0.079377598198976787 -0.93413838440361774 -0.17856689547081681 -0.28858220714467819 -0.30673803078707707 -1.0386921349741904 -0.22461535668393184 -2.8452908060769002 3.0626523730779427 0.18075074359479473 0.13380065764305868 0.14830575043836519 -0.066810941095497609 -2.1421210907298525 0.11020987003024203
leaf_weight=87 112 20 21 7194 20 221 432 26 59 493 20 1390 49 22 749 30 462 545 139 27 22 65 59 66 3832 23 592 1196 673 24 183 21 2931 98 1361 690 3232 20 7211
leaf_count=87 112 20 21 7194 20 221 432 26 59 493 20 1390 49 22 749 30 462 545 139 27 22 65 59 66 3832 23 592 1196 673 24 183 21 2931 98 1361 690 3232 20 7211
internal_value=0 -0.00174071 0.00251738 0.00261178 0.0170374 -0.000854413 -0.00310415 -0.0118205 -0.00435943 -0.0109519 -0.0310783 -0.00365798 -0.00715277 -0.0379312 -0.00621608 -0.0268386 -0.000122849 -0.00510379 -0.00755216 -0.0187911 -0.0456933 -0.00518748 -0.0149319 -0.0222652 -0.00206934 -0.0142507 -0.00266353 -0.00509598 -0.00192943 -0.0342766 -0.000785288 -0.00675216 0.00238792 -0.0062176 0.00139414 0.000121731 0.000512726 -0.00164432 0.000290674
internal_weight=0 24139 10278 10257 132 18045 4420 458 6094 572 79 5522 1817 42 1775 79 13625 1696 1151 188 49 963 214 155 3962 110 2720 1438 3705 90 2934 1217 10125 771 1544 1282 10905 3852 10443
internal_count=34417 24139 10278 10257 132 18045 4420 458 6094 572 79 5522 1817 42 1775 79 13625 1696 1151 188 49 963 214 155 3962 110 2720 1438 3705 90 2934 1217 10125 771 1544 1282 10905 3852 10443
cat_boundaries=0 1 2 3 5 6 8 9
cat_threshold=2 2 2 524288 64 24 135176 66 134352936
shrinkage=0.1


Tree=24
num_leaves=40
num_cat=5
split_feature=3 23 17 1 23 3 1 12 0 1 0 10 15 15 16 23 15 3 16 15 15 3 15 12 16 23 16 5 17 15 23 12 0 3 1 0 15 3 1
split_gain=0.224238 0.0607019 0.0422412 0.0794969 0.0420039 0.0329802 0.0341284 0.0363151 0.128592 0.0347892 0.02931 0.105507 0.0262662 0.0257277 0.0315946 0.0269979 0.0466546 0.0645561 0.0655511 0.0251125 0.0472753 0.0718827 0.0244864 0.0297595 0.0240373 0.0233343 0.0211527 0.0175148 0.0280085 0.0168542 0.0165104 0.0162687 0.0235966 0.0147899 0.014724 0.0247614 0.108389 0.0154007 0.0189368
threshold=1.5000000000000002 0 3.5000000000000004 51.503322359224235 1 5.5000000000000009 51.547672901772096 5.5000000000000009 77.500000000000014 51.443453284810936 42.500000000000007 3.5000000000000004 73.500000000000014 2.5000000000000004 1826.5000000000002 2 17.500000000000004 4.5000000000000009 1777.5000000000002 38.500000000000007 40.500000000000007 3.5000000000000004 7.5000000000000009 10.500000000000002 1648.5000000000002 3 2452.5000000000005 1.0000000180025095e-35 25.500000000000004 59.500000000000007 4 3.5000000000000004 1.0000000180025095e-35 2.5000000000000004 51.521760172387964 72.500000000000014 16.500000000000004 3.5000000000000004 51.522171499530991
decision_type=2 1 2 2 1 2 2 2 8 2 8 2 8 10 8 1 10 2 10 10 10 2 10 2 10 1 10 10 2 10 1 2 8 2 2 8 10 2 2
left_child=4 10 3 -3 -1 6 9 12 -9 -4 11 -2 -8 31 15 -15 -17 18 33 34 21 -21 23 30 -5 -24 -25 28 -22 -27 -6 -11 -33 -18 35 36 -12 38 -36
right_child=1 2 5 24 22 -7 7 8 -10 13 19 -13 -14 14 -16 16 17 -19 -20 20 27 -23 25 26 -26 29 -28 -29 -30 -31 -32 32 -34 -35 37 -37 -38 -39 -40
leaf_value=-0.15406994941165877 2.3062603059872528 0.66438740006645036 -0.24099285048142249 -0.64107140594830869 -0.22499380978453765 1.9422132353081509 -0.21044021024089546 -0.51764248738637519 -0.32943619608177532 0.35023902242612764 1.5518288259101667 0.13892896838752364 0.15767730483952605 -0.018459598796871646 0.13262815134890291 -0.11697908737046703 -0.20156126772075816 -2.5607617254692103 -3.1816609423557409 0.2909774328712203 0.14707279897191228 -1.796849234661464 -0.23717414045377261 -0.54514317770679621 -1.2202653850530436 -0.48018404685210925 0.17058901406132884 0.3033912673761428 -3.4579944842646082 0.18289464774363076 -0.11980695650374606 -0.67351694493431857 -0.028265083625131384 0.014381282106512218 -9.1486047360999034 1.9223061798740226 -4.8563598905018353 1.964072525142484 -0.087733229268901883
leaf_weight=1847 123 63 2007 20 925 2872 2621 20 315 4316 129 20 942 2189 3776 1144 380 26 23 26 53 20 220 146 31 298 36 372 23 25 834 27 1247 191 30 4649 21 1222 1188
leaf_count=1847 123 63 2007 20 925 2872 2621 20 315 4316 129 20 942 2189 3776 1144 380 26 23 26 53 20 220 146 31 298 36 372 23 25 834 27 1247 191 30 4649 21 1222 1188
internal_value=0 0.000456812 -0.000389674 -0.0187953 -0.00723131 -0.000286431 -0.000759007 -0.00339692 -0.0132013 -8.63047e-05 0.00283823 0.0165632 -0.00244073 0.000499457 -0.000682358 -0.00265524 -0.00553996 -0.012484 -0.00980806 0.00256703 -0.00427071 -0.0316662 -0.00990763 -0.00820959 -0.0445802 -0.0158984 -0.0201248 -0.000827797 -0.0137058 -0.0211332 -0.00686995 0.00213179 -0.00100212 -0.00716811 0.0030389 0.00405444 -0.00822638 0.00103312 -0.0014781
internal_weight=0 30086 22210 114 4331 22096 19224 3898 335 15326 7876 143 3563 13319 7729 3953 1764 620 594 7733 494 46 2484 1941 51 543 182 448 76 323 1759 5590 1274 571 7239 4799 150 2440 1218
internal_count=34417 30086 22210 114 4331 22096 19224 3898 335 15326 7876 143 3563 13319 7729 3953 1764 620 594 7733 494 46 2484 1941 51 543 182 448 76 323 1759 5590 1274 571 7239 4799 150 2440 1218
cat_boundaries=0 2 4 5 6 7
cat_threshold=524384 1 2350680352 1 2367949832 1092760576 1895966353
shrinkage=0.1


Tree=25
num_leaves=40
num_cat=9
split_feature=9 23 17 12 28 13 15 9 17 19 17 15 15 17 13 13 17 12 9 23 12 9 16 15 23 16 17 23 17 23 15 16 16 13 9 23 24 15 15
split_gain=0.0997421 0.0518458 0.0360354 0.0386285 0.0608551 0.132918 0.0330818 0.0679203 0.125061 0.0311401 0.0977659 0.0260993 0.0242113 0.0391979 0.0691406 0.0288749 0.0271863 0.0255049 0.0322994 0.0248438 0.0222246 0.0190531 0.0243548 0.0281115 0.0477797 0.0347179 0.0257107 0.0185492 0.0171688 0.016549 0.0255246 0.016457 0.020295 0.0160208 0.0156267 0.0243114 0.015588 0.015773 0.0232281
threshold=42.500000000000007 0 10.500000000000002 5.5000000000000009 1 0.4808219178082192 9.5000000000000018 19.500000000000004 8.5000000000000018 2 23.500000000000004 185.00000000000003 11.500000000000002 42.500000000000007 0.35479452054794525 0.067123287671232892 4.5000000000000009 13.500000000000002 10.500000000000002 3 3.5000000000000004 18.500000000000004 1836.5000000000002 12.500000000000002 4 1756.5000000000002 13.500000000000002 5 24.500000000000004 6 70.500000000000014 1439.5000000000002 1395.5000000000002 0.14383561643835618 13.500000000000002 7 8 38.500000000000007 30.500000000000004
decision_type=10 1 2 2 9 2 10 10 2 1 2 8 10 2 2 2 2 2 8 1 2 8 10 10 1 8 2 1 2 1 10 10 10 2 8 1 1 10 10
left_child=1 2 3 6 -5 -6 -1 -8 -9 10 -2 21 15 19 -15 16 -3 34 -19 20 -14 22 23 -4 25 26 -25 -18 -20 30 -24 32 -21 -22 35 -17 -28 38 -38
right_child=9 12 11 4 5 -7 7 8 -10 -11 -12 -13 13 14 -16 17 27 18 28 31 33 -23 29 24 -26 -27 36 -29 -30 -31 -32 -33 -34 -35 -36 -37 37 -39 -40
leaf_value=-0.064314513454361594 1.2302488810923606 -0.57696426535347778 -0.089763526382419204 -0.16029093296109168 -0.30705334121279437 -0.54976371211531272 -0.062235065981879605 -1.6171643111953173 0.01102759412339367 1.1191085834005414 0.12503607154877128 0.23451474656522892 -0.11672366710759051 -0.63945137436477739 0.053859619533109894 -0.41761515501946178 -0.30968662102881767 -0.4906288599361166 -0.44217736740027863 -0.4471887787936808 -5.2027727089343951 0.0070732981850859748 -0.24320280233725527 -0.59320299478971961 -0.15970404888198575 -0.96956429937714916 -0.072910570658041615 -0.12055591532712527 0.026412632946910364 0.077481318170286792 -3.1121950358381469 -0.31270014137063601 -4.3763307512383749 -0.30310712170330056 0.082512477068232934 0.043927074779993094 -0.29289931035438244 -0.26622163166083262 -0.94235365639560953
leaf_weight=1868 88 27 1233 187 72 29 288 27 40 8606 22 3654 918 23 22 344 688 25 142 130 27 8574 273 70 647 33 128 1315 36 1608 21 328 22 27 2320 446 40 48 21
leaf_count=1868 88 27 1233 187 72 29 288 27 40 8606 22 3654 918 23 22 344 688 25 142 130 27 8574 273 70 647 33 128 1315 36 1608 21 328 22 27 2320 446 40 48 21
internal_value=0 -0.00149437 -0.00063663 -0.00415614 -0.0148576 -0.0321744 -0.00270938 -0.0114182 -0.0378356 0.00241845 0.017815 -9.42904e-05 -0.00384863 -0.00740016 -0.0337404 -0.00284879 -0.00580909 -0.00102287 -0.0116092 -0.00635863 -0.00326525 -0.000772286 -0.00253625 -0.00477841 -0.00872858 -0.017971 -0.0141851 -0.005284 -0.00579335 9.20789e-05 -0.00655636 -0.0121144 -0.0207701 -0.0213326 -0.000296874 -0.00410927 -0.00851698 -0.0167579 -0.0262425
internal_weight=0 25701 18861 2511 288 101 2223 355 67 8716 110 16350 6840 1497 45 5343 2030 3313 203 1452 972 12696 4122 2220 987 340 307 2003 178 1902 294 480 152 54 3110 790 237 109 61
internal_count=34417 25701 18861 2511 288 101 2223 355 67 8716 110 16350 6840 1497 45 5343 2030 3313 203 1452 972 12696 4122 2220 987 340 307 2003 178 1902 294 480 152 54 3110 790 237 109 61
cat_boundaries=0 2 3 4 5 6 7 9 10 11
cat_threshold=2898037866 1 1 2 1090728080 2684356610 1073750165 76546050 1 1359085717 2
shrinkage=0.1


Tree=26
num_leaves=40
num_cat=5
split_feature=3 2 3 8 26 15 9 15 26 19 10 14 14 15 15 9 11 14 8 2 9 15 9 9 29 14 15 8 11 15 2 15 2 14 15 15 3 14 28
split_gain=0.170178 0.0444224 0.0385885 0.03406 0.033192 0.0572685 0.0452263 0.0320983 0.0299745 0.0231208 0.0759655 0.021545 0.0380533 0.0183861 0.023004 0.0738777 0.0174564 0.0189075 0.0165546 0.0144926 0.0413309 0.0295333 0.0130599 0.0326781 0.0128295 0.0242499 0.0125234 0.0385943 0.0754265 0.0121442 0.0118825 0.0179405 0.0239621 0.0170358 0.0168002 0.0117154 0.0109851 0.0115231 0.0131107
threshold=1.5000000000000002 -0.066266779411335366 3.5000000000000004 2276.0000000000005 0 38.500000000000007 15.500000000000002 19.500000000000004 1 2 3.5000000000000004 38.500000000000007 37.500000000000007 31.500000000000004 35.500000000000007 10.500000000000002 14.500000000000002 364.50000000000006 237.50000000000003 0.047883311450971668 12.500000000000002 15.500000000000002 33.500000000000007 31.500000000000004 3 258.50000000000006 32.500000000000007 74.500000000000014 5.5000000000000009 18.500000000000004 -0.16510155811236193 12.500000000000002 -0.16769838679652119 364.50000000000006 13.500000000000002 62.500000000000007 4.5000000000000009 349.50000000000006 4
decision_type=2 2 2 10 1 10 8 8 1 1 2 2 2 10 10 8 2 2 8 2 8 8 8 10 1 2 10 8 2 8 2 10 2 2 10 8 2 2 9
left_child=4 2 3 11 5 6 7 -1 -4 10 -10 12 29 36 15 -15 19 -18 30 35 21 -21 23 26 25 -24 -11 28 -28 -2 31 33 34 -13 -33 -6 37 38 -3
right_child=1 13 8 -5 16 -7 -8 -9 9 22 -12 18 -14 14 -16 -17 17 -19 -20 20 -22 -23 24 -25 -26 -27 27 -29 -30 -31 -32 32 -34 -35 -36 -37 -38 -39 -40
